tree
version=v4
num_class=1
num_tree_per_iteration=1
label_index=0
max_feature_idx=25
objective=regression
feature_names=geohash day_of_week hour road_type num_lanes traffic_signals large_vehicles temperature humidity rainfall weather_condition nearby_landmarks event_indicator peak_hour_flag weekend_flag rush_hour_indicator traffic_density_score weather_impact_score hour_sin hour_cos day_sin day_cos peak_x_event lanes_x_road rain_x_peak night_flag
feature_infos=[0:49] [0:6] [0:23] [0:4] [-1.4893872586515633:2.2308566765668227] [-1.5649412994357479:1.5654920238166903] [-1.6992002101625503:1.6978471685025445] [-2.3651467504756174:2.3681245549411485] [-1.7009633700321873:1.6911079852614033] [-0.44686348000792897:5.0711703610657626] [0:4] [-1.6519449376482627:1.6471265569127851] [0:1] [0:1] [0:1] [0:1] [-2.9500000000000002:2.3999999999999999] [0.40000000000000002:0.89500000000000002] [-1:1] [-1:1] [-0.97492791218182362:0.97492791218182362] [-0.90096886790241903:1] [0:1] [-5.9575490346062532:8.923426706267291] [0:49] [0:1]
tree_sizes=11567 11709 11708 11620 11536 11605 11660 11625 11655 11560 11583 11724 11714 11727 11625 11608 11595 11579 11593 11588 11576 11614 11622 11602 11695 11645 11693 11639 11586 11650 11589 11633 11578 11532 11622 11575 11592 11548 11566 11602 11519 11551 11620 11572 11520 11681 11618 11590 11681 11557 11677 11616 11643 11633 11711 11793 11679 11603 11643 11629 11683 11583 11685 11627 11553 11539 11499 11532 11541 11578 11450 11407 11337 11414 11336 11432 11376 11243 11272 11239 11216 11262 11242 11217 11252 11209 11269 11210 11263 11256 11195 11187 11183 11193 11149 11148 11191 11182 11227 11177 11158 11158 11173 11092 11109 11091 11125 11079 11145 11114 11112 11129 11149 11079 11117 11143 11134 11096 11117 11153 11113 11168 11105 11085 11071 11158 11167 11150 11107 11055 11050 11071 11062 11151 11101 11100 11141 11199 11132 11119 11034 11147 11161 11049 11133 11194 11101 11113 11105 11092 11097 11098 11154 11176 11070 11141 11155 11123 11139 11143 11149 11176 11089 11092 11061 11152 11205 11046 11097 11082 11080 11133 11210 11052 11083 11107 11147 11052 11085 11217 11088 11025 10939 11060 11107 11013 11107 11062 11030 11001 11073 11005 10995 11053 11177 10943 10890 11113 11103 11031 11044 11099 11057 11095 11002 11012 10851 10941 10926 10872 10954 10901 10896 11045 10919 10902 11019 10961 10872 10908 11031 10880 10907 10942 11036 10932 10872 10917 10766 10799 11090 10968 10872 10866 11145 10836 10947 10955 11089 10868 10916 10764 11019 10829 10897 11002 10860 10954 10910 10937 10817 10837 11002 10732 10899 10752 10944 11027 10735 10752 10823 10869 10956 10755 10689 10794 10855 10860 10825 10835 10737 10989 10689 10870 10753 10626 10714 10737 10845 10605 10852 10710 10742 10813 10790 10829 10722 10714 10607 10623 10688 10852 10767 10670 10605 10825 10688 10686 10697 10668 10710 10699 10632 10817 10567 10781 10799 10692 10643 10646 10654 10685 10745 10773 10839 10770 10676 10921 10671 10892 10680 10707 10790 10772 10756 10633 10721 10617 10588 10647 10796 10667 10655 10653 10650 10870 10717 10719 10715 10701 10656 10634 10607 10671 10717 10726 10604 10806 10739 10724 10678 10631 10683 10801 10625 10764 10726 10627 10781 10853 10614 10715 10708 10655 10650 10782 10685 10783 10820

Tree=0
num_leaves=127
num_cat=0
split_feature=15 1 19 1 23 2 18 12 2 12 23 12 2 1 23 2 12 23 1 23 12 12 2 11 12 2 23 23 23 23 23 23 11 11 12 2 10 23 12 23 23 10 12 2 23 23 11 23 11 23 12 23 23 23 10 23 10 23 23 10 10 11 23 23 10 23 23 12 2 12 11 11 12 23 10 23 11 10 2 11 23 10 23 10 23 23 23 23 23 11 10 11 23 23 10 23 23 23 11 10 23 2 2 11 23 23 10 11 23 11 10 23 23 23 11 23 23 11 11 23 23 10 23 23 23 10
split_gain=2.89189e+10 3.90677e+09 3.72463e+09 2.11921e+09 1.95422e+09 1.24535e+09 1.21062e+09 1.11117e+09 8.20166e+08 8.10529e+08 7.24149e+08 7.10653e+08 6.41869e+08 6.25002e+08 5.47708e+08 5.25839e+08 3.84227e+08 3.09106e+08 3.01896e+08 3.00562e+08 3.00141e+08 2.89322e+08 2.77824e+08 2.74223e+08 2.72304e+08 2.65266e+08 2.32136e+08 2.28292e+08 2.23176e+08 1.79211e+08 1.76713e+08 1.57731e+08 1.49502e+08 1.49095e+08 1.4517e+08 1.31894e+08 1.2531e+08 1.24697e+08 1.24693e+08 1.22777e+08 1.19945e+08 1.19045e+08 1.1477e+08 1.1251e+08 1.05762e+08 1.05612e+08 1.02326e+08 1.00442e+08 8.89148e+07 8.60795e+07 7.65535e+07 7.49276e+07 7.39768e+07 1.00997e+08 7.33486e+07 7.1697e+07 7.15147e+07 6.95402e+07 6.89456e+07 6.85748e+07 6.84486e+07 6.77857e+07 6.77804e+07 9.00289e+07 6.65297e+07 6.46541e+07 6.36727e+07 6.16937e+07 6.16876e+07 6.14264e+07 6.04591e+07 5.94044e+07 5.71194e+07 5.70786e+07 5.5959e+07 5.58203e+07 5.404e+07 5.19803e+07 5.08734e+07 5.01768e+07 4.99086e+07 4.59651e+07 4.47494e+07 4.36923e+07 4.35726e+07 4.31695e+07 4.29013e+07 4.28884e+07 4.27538e+07 4.19182e+07 4.12115e+07 4.0863e+07 4.00636e+07 3.9979e+07 3.97825e+07 3.95112e+07 3.8799e+07 3.86438e+07 3.8232e+07 3.8208e+07 3.81344e+07 3.64758e+07 8.63739e+07 3.6186e+07 3.59425e+07 4.43219e+07 3.50657e+07 3.48315e+07 3.40008e+07 3.39817e+07 3.37086e+07 3.34932e+07 3.32396e+07 4.10381e+07 3.27455e+07 3.18176e+07 5.42975e+07 3.15139e+07 3.09542e+07 3.0464e+07 4.18401e+07 2.97865e+07 2.86004e+07 4.02134e+07 2.82603e+07 2.77164e+07
threshold=1.0000000180025095e-35 4.5000000000000009 1.0000000180025095e-35 4.5000000000000009 -0.0019345268463133471 16.500000000000004 -0.91597561503675329 1.0000000180025095e-35 4.5000000000000009 1.0000000180025095e-35 -0.0019345268463133471 1.0000000180025095e-35 4.5000000000000009 4.5000000000000009 -0.0019345268463133471 16.500000000000004 1.0000000180025095e-35 -0.0019345268463133471 4.5000000000000009 1.1141386537192026 1.0000000180025095e-35 1.0000000180025095e-35 4.5000000000000009 1.0000000180025095e-35 1.0000000180025095e-35 4.5000000000000009 -0.0019345268463133471 -0.0019345268463133471 2.229566992002614 1.1141386537192026 1.1141386537192026 -0.0019345268463133471 1.0000000180025095e-35 0.17122615145126377 1.0000000180025095e-35 4.5000000000000009 1.5000000000000002 2.229566992002614 1.0000000180025095e-35 -0.0019345268463133471 -0.0019345268463133471 1.5000000000000002 1.0000000180025095e-35 4.5000000000000009 2.6009465432423484 1.1141386537192026 -0.17604453218674124 2.229566992002614 1.0000000180025095e-35 -0.0019345268463133471 1.0000000180025095e-35 1.1141386537192026 -1.4900321009336674 -0.0045138959747311426 1.5000000000000002 2.229566992002614 1.5000000000000002 2.6009465432423484 1.1141386537192026 1.5000000000000002 1.5000000000000002 -0.34967987400574374 -1.4900321009336674 -0.0045138959747311426 1.5000000000000002 2.6009465432423484 1.1141386537192026 1.0000000180025095e-35 4.5000000000000009 1.0000000180025095e-35 -0.17604453218674124 0.34486149327026633 1.0000000180025095e-35 1.1141386537192026 1.5000000000000002 1.1141386537192026 0.34486149327026633 1.5000000000000002 4.5000000000000009 0.17122615145126377 2.229566992002614 1.5000000000000002 2.229566992002614 3.5000000000000004 -2.9800642018673349 2.229566992002614 -0.0019345268463133471 2.6009465432423484 -2.9800642018673349 0.17122615145126377 1.5000000000000002 1.0000000180025095e-35 -0.0019345268463133471 1.1141386537192026 1.5000000000000002 -0.0019345268463133471 2.229566992002614 2.229566992002614 0.34486149327026633 3.5000000000000004 1.1141386537192026 7.5000000000000009 9.5000000000000018 0.34486149327026633 -1.4900321009336674 -0.0045138959747311426 1.5000000000000002 0.51849683508926891 -1.4900321009336674 -0.34967987400574374 1.5000000000000002 -0.0045138959747311426 -1.4900321009336674 -0.0045138959747311426 1.0000000180025095e-35 -1.4900321009336674 -0.0045138959747311426 0.34486149327026633 -0.17604453218674124 -1.4900321009336674 -0.0045138959747311426 1.5000000000000002 -1.4900321009336674 -0.0045138959747311426 2.6009465432423484 1.5000000000000002
decision_type=2 2 2 2 2 2 2 2 2 2 2 2 2 2 2 2 2 2 2 2 2 2 2 2 2 2 2 2 2 2 2 2 2 2 2 2 2 2 2 2 2 2 2 2 2 2 2 2 2 2 2 2 2 2 2 2 2 2 2 2 2 2 2 2 2 2 2 2 2 2 2 2 2 2 2 2 2 2 2 2 2 2 2 2 2 2 2 2 2 2 2 2 2 2 2 2 2 2 2 2 2 2 2 2 2 2 2 2 2 2 2 2 2 2 2 2 2 2 2 2 2 2 2 2 2 2
left_child=1 4 3 5 7 10 18 8 32 12 16 14 30 17 22 24 33 34 31 48 29 27 103 36 26 73 60 71 91 70 79 50 56 59 77 121 52 -32 51 68 72 62 49 -11 -30 89 106 -31 90 -15 114 -19 88 -54 119 -47 104 -39 -28 101 107 -46 84 -64 115 -49 -29 93 -13 95 -12 122 118 -16 108 -45 -37 109 -41 -6 -60 -50 -68 112 -25 -53 -26 -57 -10 -27 -14 -21 -23 -33 -59 -20 -75 -77 -67 -38 -42 -2 -103 -3 -1 -106 -24 -5 -48 -8 -63 -110 -43 -114 -4 -34 -117 -18 -17 -35 -121 -9 -7 -124 -82 -89
right_child=2 11 6 15 9 21 13 35 23 43 20 39 19 42 25 40 117 38 69 28 -22 92 46 41 86 45 58 66 44 47 37 67 64 54 -36 76 99 57 -40 78 100 83 -44 75 61 55 74 65 81 -51 -52 85 53 -55 -56 87 -58 94 80 -61 -62 110 63 -65 -66 98 82 -69 -70 -71 -72 -73 -74 96 -76 97 -78 -79 -80 -81 124 -83 -84 -85 -86 -87 -88 125 -90 -91 -92 -93 -94 -95 -96 -97 -98 -99 -100 -101 -102 102 -104 -105 105 -107 -108 -109 111 -111 -112 -113 113 -115 -116 116 -118 -119 -120 120 -122 -123 123 -125 -126 -127
leaf_value=1720.3259024060508 1787.1525730881551 1697.2723805755259 1790.2789619689395 1771.730265801431 1754.7564162674062 1815.8438908580085 1760.9879372687503 1766.3615898397759 1747.855161705852 1782.0209652190022 1824.9545299786746 1729.2368050343921 1781.0872973556336 1734.5738103793069 1730.2458894064139 1790.2404005202604 1824.8911286512766 1797.0517958037005 1768.9427008564398 1740.8664827140065 1854.8133026244568 1859.5874247153679 1718.4837250246735 1763.2199752801127 1801.1993292124002 1745.7464067655155 1802.984196106702 1860.6833038194445 1796.0344803415464 1800.7147764149975 1727.0802889715276 1831.7307159439704 1735.6116726325995 1808.5687646302135 1792.9341421824161 1775.0537877339557 1736.4488525977072 1775.1152813380902 1818.6579497740408 1751.1009871232202 1837.2034083099916 1745.0068129731462 1774.9723756623969 1813.4919690934294 1759.9431005804336 1720.6132934504112 1726.6167410916564 1846.674384633696 1795.7485362712441 1755.8631324031967 1829.5960622158079 1763.9322270015218 1763.5895812859001 1740.7838165966261 1798.7755154330691 1766.3803605587191 1711.9635315039334 1752.027220300678 1768.8138942689254 1785.1997172362071 1760.3643641039421 1779.8479630146153 1777.9428760963731 1755.5341059745524 1726.936601969612 1811.9226432884234 1826.6023460605177 1852.1953166019 1751.1959287878763 1809.8560087047367 1841.0514386639391 1838.0155253855528 1829.7799618841166 1699.8058458314995 1718.6817974726207 1779.7790992344594 1791.1187710094459 1754.8175924875895 1773.6374873964151 1769.1440377734268 1816.6379328329685 1780.7183005727002 1849.1922716545901 1731.8497179882852 1748.3376399245008 1785.1237031628079 1823.4153349975918 1744.2766193449402 1733.0526233990699 1761.4355911192054 1766.7084828736297 1757.2275684507601 1882.0347316331131 1811.950788734259 1735.9130968344307 1789.6476920762004 1720.1283205809873 1802.2201606022757 1827.2967692420216 1717.6497454436847 1817.1155872241341 1813.2031093381743 1792.4139894910486 1709.3334885214804 1740.1986259189225 1719.9019389238611 1704.9786357573582 1786.3487233346427 1747.0282912066191 1775.0102839834155 1765.6475729517997 1726.9214612863598 1766.8785919836407 1745.269467027822 1805.569143494999 1756.1908169702522 1733.6429943322037 1841.5834070640065 1806.9920527660574 1828.912125155131 1807.9686770350188 1749.7631863252275 1837.3521388830238 1814.5816267835071 1787.9884720309401 1727.6242452513377
leaf_weight=1044 495 1616 700 1196 1318 794 728 820 1189 941 1086 512 1358 1124 997 522 779 1056 580 753 924 491 1489 1176 561 967 943 944 405 844 858 486 1081 992 526 1334 1828 241 377 391 462 906 342 774 1257 566 929 226 1368 826 222 350 1314 770 1090 159 1204 1112 345 1304 989 1218 1268 692 1157 1036 322 192 861 168 1328 1092 177 354 1001 283 861 948 693 1122 98 812 785 323 847 762 361 749 838 764 786 780 389 564 589 381 771 600 686 322 513 959 1050 1102 787 416 750 617 622 1060 635 315 568 358 710 709 430 474 594 639 393 403 554 312 686 383
leaf_count=1044 495 1616 700 1196 1318 794 728 820 1189 941 1086 512 1358 1124 997 522 779 1056 580 753 924 491 1489 1176 561 967 943 944 405 844 858 486 1081 992 526 1334 1828 241 377 391 462 906 342 774 1257 566 929 226 1368 826 222 350 1314 770 1090 159 1204 1112 345 1304 989 1218 1268 692 1157 1036 322 192 861 168 1328 1092 177 354 1001 283 861 948 693 1122 98 812 785 323 847 762 361 749 838 764 786 780 389 564 589 381 771 600 686 322 513 959 1050 1102 787 416 750 617 622 1060 635 315 568 358 710 709 430 474 594 639 393 403 554 312 686 383
internal_value=1772.31 1749.04 1804.67 1814.67 1757.41 1823.4 1781.48 1747.76 1743.09 1770.11 1815.53 1728.16 1765.54 1770.37 1723.67 1793.03 1805.78 1779.09 1803.97 1773.37 1828.52 1843.2 1715.07 1750.76 1785.04 1735.45 1780.32 1838.35 1765.09 1823.84 1751.53 1812.58 1729.18 1801.16 1768.9 1774.03 1743.4 1742.96 1792.15 1752.91 1813.44 1758.27 1748.26 1795.84 1772.03 1743.76 1721.97 1815.18 1783.05 1743.58 1802.33 1787.52 1748.52 1755.15 1809.28 1735.47 1721.85 1749.99 1793.01 1794.51 1770.94 1768.9 1763.4 1770.03 1736.68 1821.43 1851 1826.01 1742.98 1782.06 1833.83 1828.89 1803.41 1721.44 1728.26 1803.68 1781.36 1764.28 1765.5 1761.37 1784.66 1790.16 1842.68 1748.81 1756.98 1778.45 1809.94 1742.02 1741.72 1752.66 1775.82 1749.18 1869.62 1821.15 1746.43 1777.16 1713.67 1795.04 1818.08 1733.61 1826.69 1799.36 1802.35 1702.14 1727.17 1733.14 1713.93 1776.71 1733.43 1769.3 1774.98 1740.23 1751.82 1758.5 1798 1741.78 1747.65 1831.26 1799.18 1814.92 1820.98 1760.88 1822.85 1829.21 1791.62 1738.61
internal_weight=96000 55846 40154 28052 39855 19988 12102 22645 19227 17210 14305 15991 14612 8099 13534 8064 8175 5807 4003 9372 6130 5683 7824 12399 5796 5710 4874 4803 5048 5206 5240 2874 6828 6922 3262 3418 6261 2800 2545 2457 2268 6138 2292 2598 3515 3588 5106 2792 4324 1950 1632 2168 4111 2084 3114 1857 3451 1942 2072 3808 2802 3110 3983 1960 3377 1948 2051 1242 1373 1129 2414 2752 1293 2122 2867 1657 2195 2736 1084 2440 1129 2180 1107 2155 2023 1112 922 1291 2027 1731 2144 1533 880 1050 1701 961 1125 883 1722 2150 975 2504 2009 2718 2247 1203 2239 1813 1866 1788 1853 937 1832 926 1410 2220 1139 1253 1116 2024 1032 1223 1660 866 784 1132
internal_count=96000 55846 40154 28052 39855 19988 12102 22645 19227 17210 14305 15991 14612 8099 13534 8064 8175 5807 4003 9372 6130 5683 7824 12399 5796 5710 4874 4803 5048 5206 5240 2874 6828 6922 3262 3418 6261 2800 2545 2457 2268 6138 2292 2598 3515 3588 5106 2792 4324 1950 1632 2168 4111 2084 3114 1857 3451 1942 2072 3808 2802 3110 3983 1960 3377 1948 2051 1242 1373 1129 2414 2752 1293 2122 2867 1657 2195 2736 1084 2440 1129 2180 1107 2155 2023 1112 922 1291 2027 1731 2144 1533 880 1050 1701 961 1125 883 1722 2150 975 2504 2009 2718 2247 1203 2239 1813 1866 1788 1853 937 1832 926 1410 2220 1139 1253 1116 2024 1032 1223 1660 866 784 1132
is_linear=0
shrinkage=1


Tree=1
num_leaves=127
num_cat=0
split_feature=15 13 1 3 3 19 1 3 3 1 1 22 1 25 18 25 3 3 25 3 19 22 3 3 22 11 18 18 3 25 3 25 3 11 11 25 3 11 3 11 19 19 11 11 22 18 3 11 11 18 4 11 11 23 23 4 4 23 4 3 3 19 11 11 11 3 23 11 11 23 11 4 23 4 4 3 16 16 18 18 4 18 11 19 11 3 23 18 18 4 11 23 11 18 4 11 18 18 18 11 4 4 4 4 18 18 23 18 18 3 3 11 3 16 11 11 3 16 11 11 17 4 19 4 18 11
split_gain=2.61034e+10 3.85119e+09 3.5263e+09 2.48787e+09 1.67715e+09 1.22091e+09 1.14081e+09 9.10138e+08 8.43692e+08 5.64131e+08 5.48238e+08 5.1316e+08 4.5524e+08 4.33544e+08 4.26371e+08 4.05222e+08 3.82957e+08 3.73597e+08 3.5549e+08 2.85624e+08 2.81128e+08 2.34484e+08 2.01445e+08 2.01393e+08 2.00202e+08 1.78803e+08 1.77776e+08 1.69464e+08 1.60071e+08 1.51738e+08 1.49699e+08 1.46627e+08 1.38291e+08 1.36482e+08 1.33119e+08 1.30601e+08 1.26901e+08 1.21332e+08 1.19195e+08 1.16504e+08 1.13744e+08 1.08089e+08 9.96491e+07 9.0705e+07 8.59351e+07 8.39053e+07 8.28088e+07 7.26541e+07 7.19336e+07 6.97672e+07 6.95722e+07 6.48759e+07 6.06309e+07 5.98671e+07 5.58465e+07 5.49663e+07 5.46999e+07 5.44328e+07 5.43985e+07 5.20914e+07 5.13532e+07 5.12941e+07 5.09421e+07 5.04457e+07 4.97588e+07 4.96511e+07 4.93379e+07 4.88626e+07 4.87251e+07 4.85016e+07 4.78379e+07 4.6671e+07 4.48103e+07 4.42934e+07 4.38196e+07 4.28295e+07 4.15892e+07 4.0983e+07 4.05114e+07 4.78727e+07 4.00341e+07 3.79122e+07 3.73505e+07 3.69052e+07 3.6668e+07 3.62769e+07 3.5379e+07 3.48352e+07 3.31964e+07 3.27862e+07 3.23936e+07 3.18854e+07 3.14071e+07 3.00128e+07 2.93369e+07 2.73247e+07 2.57424e+07 3.40705e+07 2.47292e+07 2.46195e+07 2.43504e+07 2.3359e+07 2.32176e+07 2.30573e+07 2.29936e+07 3.2767e+07 2.29861e+07 2.25169e+07 3.28575e+07 2.15904e+07 2.15638e+07 2.10666e+07 2.0739e+07 2.0533e+07 2.04064e+07 2.03134e+07 2.02854e+07 2.00566e+07 1.98405e+07 1.95264e+07 1.93924e+07 1.90294e+07 1.89897e+07 1.89448e+07 1.88249e+07 1.8614e+07
threshold=1.0000000180025095e-35 1.0000000180025095e-35 4.5000000000000009 1.5000000000000002 1.5000000000000002 1.0000000180025095e-35 4.5000000000000009 1.5000000000000002 3.5000000000000004 4.5000000000000009 4.5000000000000009 1.0000000180025095e-35 4.5000000000000009 1.0000000180025095e-35 0.91597561503675362 1.0000000180025095e-35 1.5000000000000002 1.5000000000000002 1.0000000180025095e-35 3.5000000000000004 0.1294095225512602 1.0000000180025095e-35 2.5000000000000004 2.5000000000000004 1.0000000180025095e-35 -0.17604453218674124 0.91597561503675362 0.91597561503675362 2.5000000000000004 1.0000000180025095e-35 1.5000000000000002 1.0000000180025095e-35 1.5000000000000002 1.0000000180025095e-35 -0.17604453218674124 1.0000000180025095e-35 2.5000000000000004 0.17122615145126377 3.5000000000000004 -0.17604453218674124 0.1294095225512602 0.1294095225512602 1.0000000180025095e-35 -0.34967987400574374 1.0000000180025095e-35 0.91597561503675362 2.5000000000000004 -0.17604453218674124 1.0000000180025095e-35 0.91597561503675362 1.4868078895231458 -0.17604453218674124 0.17122615145126377 2.6009465432423484 1.856897756198671 1.0000000180025095e-35 1.0000000180025095e-35 2.6009465432423484 1.0000000180025095e-35 3.5000000000000004 3.5000000000000004 0.1294095225512602 0.17122615145126377 -0.52331521582474616 0.17122615145126377 3.5000000000000004 2.6009465432423484 1.0000000180025095e-35 1.0000000180025095e-35 1.856897756198671 0.17122615145126377 1.0000000180025095e-35 1.856897756198671 1.0000000180025095e-35 1.0000000180025095e-35 2.5000000000000004 -0.57499999999999984 -0.17499999999999996 -1.0000000180025095e-35 0.91597561503675362 1.0000000180025095e-35 0.91597561503675362 -0.34967987400574374 0.1294095225512602 -1.0000000180025095e-35 2.5000000000000004 -1.0000000180025095e-35 0.60355339059327384 -1.0000000180025095e-35 1.0000000180025095e-35 0.17122615145126377 2.6009465432423484 0.17122615145126377 0.60355339059327384 1.0000000180025095e-35 0.69213217690827145 -1.0000000180025095e-35 0.91597561503675362 0.91597561503675362 -0.34967987400574374 -0.37331407808604739 1.0000000180025095e-35 1.4868078895231458 1.0000000180025095e-35 0.91597561503675362 -1.0000000180025095e-35 2.6009465432423484 -1.0000000180025095e-35 0.91597561503675362 3.5000000000000004 2.5000000000000004 1.0000000180025095e-35 2.5000000000000004 -0.22499999999999998 0.17122615145126377 -0.34967987400574374 3.5000000000000004 0.67500000000000016 -0.52331521582474616 -0.34967987400574374 0.41750000000000009 1.0000000180025095e-35 0.1294095225512602 1.0000000180025095e-35 0.60355339059327384 -0.17604453218674124
decision_type=2 2 2 2 2 2 2 2 2 2 2 2 2 2 2 2 2 2 2 2 2 2 2 2 2 2 2 2 2 2 2 2 2 2 2 2 2 2 2 2 2 2 2 2 2 2 2 2 2 2 2 2 2 2 2 2 2 2 2 2 2 2 2 2 2 2 2 2 2 2 2 2 2 2 2 2 2 2 2 2 2 2 2 2 2 2 2 2 2 2 2 2 2 2 2 2 2 2 2 2 2 2 2 2 2 2 2 2 2 2 2 2 2 2 2 2 2 2 2 2 2 2 2 2 2 2
left_child=2 5 3 18 12 10 11 29 13 16 17 14 21 28 20 34 67 84 42 35 23 26 62 111 27 55 41 40 94 64 -12 68 -11 56 77 54 -19 76 69 57 46 51 86 89 49 75 -8 106 121 61 78 124 102 87 82 96 107 88 104 110 -16 90 -15 -48 113 119 85 -7 -21 92 -40 120 95 -39 -45 -13 -24 -10 -27 100 -44 -26 -9 114 -2 -34 -1 -41 -25 -30 -14 -49 -18 -65 118 -37 -17 -98 122 -87 -80 -50 -31 -53 105 -35 -38 -20 -109 -42 -22 -6 -84 -4 -77 -67 -29 -64 -5 -32 -36 -33 -23 -70 -3 -43
right_child=1 4 7 8 6 9 24 19 15 32 30 45 44 22 60 25 38 36 33 31 59 98 37 39 81 50 -28 116 43 52 65 48 66 58 71 72 47 73 70 53 109 125 80 74 -46 -47 63 91 101 -51 -52 103 -54 -55 -56 -57 -58 -59 -60 -61 -62 -63 117 93 -66 115 -68 -69 123 -71 -72 -73 -74 -75 -76 83 -78 -79 79 -81 -82 -83 112 -85 -86 99 -88 -89 -90 -91 -92 -93 -94 -95 -96 -97 97 -99 -100 -101 -102 -103 -104 -105 -106 -107 -108 108 -110 -111 -112 -113 -114 -115 -116 -117 -118 -119 -120 -121 -122 -123 -124 -125 -126 -127
leaf_value=1.4858146019582659 46.32533978149965 73.331245330268814 -25.365069914794553 -46.231125833575646 19.243760469801572 17.314083615499495 -2.4281269644867738 -61.98699016023162 -16.947744392376617 -3.3153132010813224 24.433457513272767 50.995123476676753 40.59011490719277 -58.34709415970714 7.0575217970694943 -24.520165074665435 -21.933637794669089 3.5747924169032808 -4.9598257140308419 -39.890879752266663 4.735957196198977 105.5919633353773 -46.358778183176966 46.346649120342597 43.62680046365827 -7.402148413547085 44.109456957174672 -21.483049595376485 -28.905494778517756 -39.856527034106918 -21.675668661541408 -60.183361028012612 -54.364647115808751 8.7739211150409826 -7.1919499246368659 -71.757247222528221 18.151585952970489 -29.859243561372921 -0.22289890462530995 60.153004143089802 -13.012182140122599 44.720928012319717 18.004449438956907 -14.030620241114143 67.420180553220362 43.947283684269081 12.764702633241951 32.282959570158404 -45.429515759222191 16.427038242030473 4.1961496151346962 78.302633466771042 -23.029008789041058 70.887745876503274 -35.013772853235551 -19.660338357072131 0.38121559594443699 57.266152849868995 14.307606178897267 34.280176108335432 24.35968503135356 24.618284463785074 -45.648415780520551 35.154862064906069 -4.6402151679510917 -4.1969800007921281 -13.86012806528484 33.853020092578952 -29.570923413391075 2.6557195112278986 15.403922927622251 12.224805847819034 -53.958891155896026 -15.482971784198245 0.16779896358948621 73.535273284912122 -34.776996771593581 -4.4896447735364058 -27.738892990287894 -4.7109623823230384 31.85729313179527 14.438322191624335 -57.117913979099228 57.98497765292641 61.317311557783562 -40.685968563777436 13.436877704023519 48.203844706658685 33.417481074635688 -13.94391766242981 57.87414472885888 47.751808486092692 -7.4670324798949226 20.980678505450101 -23.647897388864966 -59.694225700568637 -39.391335783830293 -21.284060142197699 76.027873722621379 -25.191622248652692 -17.683913050012304 -32.217416512132665 -18.531602358619374 92.026730717873093 13.789147025578552 -5.1220254250117181 32.837988249887182 -19.225632187416192 -1.4691226210518489 4.888633229094709 21.880230440069639 34.250158599119047 -42.189779108575038 -11.429167397194487 88.525140301024365 11.759220109956098 -3.9515019741361108 -23.86039172245026 -32.932200043311937 -5.6574287346966017 2.5682399745855977 -47.711344591043733 82.714971348353799 -15.901502101939801 60.804538143157963 61.307966033783728
leaf_weight=1146 845 675 737 444 489 892 390 744 1606 650 709 202 622 1216 829 627 806 557 587 1174 259 515 1481 970 602 956 719 348 1239 1426 314 1111 206 586 778 1639 1236 1795 1134 1253 334 324 1819 1801 317 309 863 1445 1147 287 460 1133 1222 698 555 1044 1001 567 1021 843 890 289 883 739 896 329 350 902 891 508 861 987 770 769 778 555 1678 1122 1071 475 735 138 364 237 836 431 1347 1267 1055 524 504 441 704 769 543 721 1547 317 139 655 1398 491 143 489 287 1529 342 1534 314 338 633 458 723 416 473 504 314 124 819 483 1467 461 139 360 639 401
leaf_count=1146 845 675 737 444 489 892 390 744 1606 650 709 202 622 1216 829 627 806 557 587 1174 259 515 1481 970 602 956 719 348 1239 1426 314 1111 206 586 778 1639 1236 1795 1134 1253 334 324 1819 1801 317 309 863 1445 1147 287 460 1133 1222 698 555 1044 1001 567 1021 843 890 289 883 739 896 329 350 902 891 508 861 987 770 769 778 555 1678 1122 1071 475 735 138 364 237 836 431 1347 1267 1055 524 504 441 704 769 543 721 1547 317 139 655 1398 491 143 489 287 1529 342 1534 314 338 633 458 723 416 473 504 314 124 819 483 1467 461 139 360 639 401
internal_value=0.000306316 30.7477 -22.1076 -14.1485 43.4421 11.8588 34.7984 -41.9423 -22.3017 -1.84391 25.6588 43.0676 63.6518 -30.9149 38.7458 -13.5384 6.4468 34.0195 4.99126 -49.8014 43.3427 71.5159 -38.6294 47.9541 14.2926 -20.9673 66.9514 9.96213 -20.9396 -23.829 5.27142 -41.8666 -22.8429 -2.42001 -3.69588 -57.8983 25.7333 -33.6554 -2.13945 51.441 14.4284 71.4242 15.0619 -15.7301 43.4772 67.8799 18.9171 29.2942 -48.8853 38.9809 -14.1866 75.7151 -31.4141 57.8145 -49.0329 -29.3241 -9.4584 43.5089 4.64581 25.3663 16.0246 43.5405 -51.4137 22.4277 -13.4867 -3.07335 -30.5663 25.6439 -32.5596 -10.7048 6.52564 3.16912 -64.6386 -25.5552 -9.74901 72.8876 -40.2197 -11.8274 -16.3553 -19.2592 22.002 38.2104 -53.2608 76.3404 53.8132 -35.0778 7.94593 54.1667 39.6305 -24.469 48.371 35.9234 -15.1984 27.9455 -33.4487 -68.0987 -33.3647 -36.325 96.6114 -31.3726 -22.055 -41.4912 -37.926 82.4943 0.534693 -1.26957 21.3534 -13.5018 -16.211 -4.01461 16.9131 26.5298 -47.2366 -20.3513 80.5117 5.45971 -13.186 -42.9918 -37.6402 -11.9875 -0.815827 -56.5585 100.863 -25.6531 67.2904 53.9671
internal_weight=96000 40154 55846 39855 24014 16140 16822 15991 27949 8099 8041 11987 7192 14094 10211 13855 5807 5702 11906 11151 8492 5173 7946 6757 4835 7895 4380 4095 6148 4840 2339 5635 2292 6859 5960 5516 4021 5723 4013 5810 3433 3661 5047 4342 2019 1776 2761 3464 3210 1702 4360 2936 2791 3218 2386 3535 3436 2592 3423 1735 1719 1415 2223 2371 2049 1630 1642 1794 2425 2018 1995 3232 3130 2564 2579 1467 3159 2728 3900 2944 2554 740 1831 1265 1681 1292 2493 2520 2025 1763 1126 1886 1510 1508 1806 2360 2491 1864 793 1086 2469 1638 1569 1622 2402 2115 1578 2435 1848 672 892 947 1087 1153 1028 833 662 1007 1263 797 2245 1572 654 1251 1314 725
internal_count=96000 40154 55846 39855 24014 16140 16822 15991 27949 8099 8041 11987 7192 14094 10211 13855 5807 5702 11906 11151 8492 5173 7946 6757 4835 7895 4380 4095 6148 4840 2339 5635 2292 6859 5960 5516 4021 5723 4013 5810 3433 3661 5047 4342 2019 1776 2761 3464 3210 1702 4360 2936 2791 3218 2386 3535 3436 2592 3423 1735 1719 1415 2223 2371 2049 1630 1642 1794 2425 2018 1995 3232 3130 2564 2579 1467 3159 2728 3900 2944 2554 740 1831 1265 1681 1292 2493 2520 2025 1763 1126 1886 1510 1508 1806 2360 2491 1864 793 1086 2469 1638 1569 1622 2402 2115 1578 2435 1848 672 892 947 1087 1153 1028 833 662 1007 1263 797 2245 1572 654 1251 1314 725
is_linear=0
shrinkage=0.05


Tree=2
num_leaves=127
num_cat=0
split_feature=15 24 20 3 3 12 19 1 3 25 12 1 1 12 12 1 3 3 3 3 19 3 11 12 3 12 12 12 12 11 3 3 25 3 19 3 3 11 4 11 3 11 3 25 12 12 11 4 4 11 12 12 12 3 25 4 11 11 3 25 19 4 3 19 11 3 11 3 4 11 11 11 11 11 4 11 3 11 3 3 16 3 11 4 12 4 4 12 4 3 9 3 11 11 11 9 11 11 3 11 4 4 11 9 3 9 9 16 19 4 19 3 3 11 19 9 19 3 3 11 9 19 19 9 3 19
split_gain=2.35616e+10 3.47645e+09 3.18292e+09 2.24554e+09 1.51405e+09 1.19075e+09 1.10205e+09 1.02975e+09 8.2151e+08 6.458e+08 5.25908e+08 5.09251e+08 4.94858e+08 4.63348e+08 4.21103e+08 4.1091e+08 3.52028e+08 3.4566e+08 3.3721e+08 2.86173e+08 2.80222e+08 2.66295e+08 2.22636e+08 2.2041e+08 2.13342e+08 2.11795e+08 1.83402e+08 1.80729e+08 1.67451e+08 1.59272e+08 1.35127e+08 1.24845e+08 1.22133e+08 1.2002e+08 1.17214e+08 1.1382e+08 1.12111e+08 1.05249e+08 9.29689e+07 9.25423e+07 9.19689e+07 9.00005e+07 8.67104e+07 8.60942e+07 8.56344e+07 7.75939e+07 7.6379e+07 7.54805e+07 7.47463e+07 7.37985e+07 7.30754e+07 7.05192e+07 6.68246e+07 6.09871e+07 5.95412e+07 5.70505e+07 5.40066e+07 5.26988e+07 5.25359e+07 5.17077e+07 5.06778e+07 4.84352e+07 4.6239e+07 4.60468e+07 4.50692e+07 4.43515e+07 4.3324e+07 4.27145e+07 4.2521e+07 4.21584e+07 3.92967e+07 3.84118e+07 3.82927e+07 3.77522e+07 3.70328e+07 3.66844e+07 3.60434e+07 3.60356e+07 3.52441e+07 3.49236e+07 3.45702e+07 3.41532e+07 3.41101e+07 3.29224e+07 3.12514e+07 3.11465e+07 3.09435e+07 3.09365e+07 2.99426e+07 2.92481e+07 2.83986e+07 2.80346e+07 2.68771e+07 2.65397e+07 2.60651e+07 2.56576e+07 2.54824e+07 2.54096e+07 2.49637e+07 2.49168e+07 2.49023e+07 2.45012e+07 2.41726e+07 2.41622e+07 2.3689e+07 2.33706e+07 2.32993e+07 2.31576e+07 2.30491e+07 2.29914e+07 2.26919e+07 2.24244e+07 2.19366e+07 2.07867e+07 2.04487e+07 2.01877e+07 2.0166e+07 2.01352e+07 1.97135e+07 1.96778e+07 1.96621e+07 1.9634e+07 2.04205e+07 1.95309e+07 1.93126e+07 1.91452e+07
threshold=1.0000000180025095e-35 1.0000000180025095e-35 -0.60785761079279388 1.5000000000000002 1.5000000000000002 1.0000000180025095e-35 -1.0000000180025095e-35 4.5000000000000009 1.5000000000000002 1.0000000180025095e-35 1.0000000180025095e-35 4.5000000000000009 4.5000000000000009 1.0000000180025095e-35 1.0000000180025095e-35 4.5000000000000009 2.5000000000000004 1.5000000000000002 1.5000000000000002 2.5000000000000004 0.37940952255126048 3.5000000000000004 -1.0000000180025095e-35 1.0000000180025095e-35 3.5000000000000004 1.0000000180025095e-35 1.0000000180025095e-35 1.0000000180025095e-35 1.0000000180025095e-35 -0.34967987400574374 1.5000000000000002 1.5000000000000002 1.0000000180025095e-35 3.5000000000000004 0.37940952255126048 2.5000000000000004 3.5000000000000004 0.17122615145126377 -1.0000000180025095e-35 -0.17604453218674124 2.5000000000000004 0.34486149327026633 3.5000000000000004 1.0000000180025095e-35 1.0000000180025095e-35 1.0000000180025095e-35 -1.0000000180025095e-35 1.4868078895231458 1.0000000180025095e-35 0.17122615145126377 1.0000000180025095e-35 1.0000000180025095e-35 1.0000000180025095e-35 3.5000000000000004 1.0000000180025095e-35 1.0000000180025095e-35 -0.34967987400574374 -0.17604453218674124 3.5000000000000004 1.0000000180025095e-35 0.37940952255126048 1.0000000180025095e-35 3.5000000000000004 0.37940952255126048 -0.17604453218674124 2.5000000000000004 -0.17604453218674124 2.5000000000000004 1.0000000180025095e-35 0.17122615145126377 0.34486149327026633 -0.34967987400574374 0.17122615145126377 -0.34967987400574374 1.0000000180025095e-35 0.17122615145126377 3.5000000000000004 1.0000000180025095e-35 3.5000000000000004 3.5000000000000004 0.075000000000000025 2.5000000000000004 0.17122615145126377 -1.0000000180025095e-35 1.0000000180025095e-35 -0.37331407808604739 1.0000000180025095e-35 1.0000000180025095e-35 -1.0000000180025095e-35 2.5000000000000004 -0.12528792139871506 3.5000000000000004 -0.17604453218674124 -0.17604453218674124 -0.52331521582474616 -0.24918743609928781 1.0000000180025095e-35 0.17122615145126377 2.5000000000000004 1.0000000180025095e-35 1.0000000180025095e-35 1.4868078895231458 0.51849683508926891 -0.19174311564720409 2.5000000000000004 -0.15232054278793092 -0.15232054278793092 -0.17499999999999996 0.1294095225512602 1.0000000180025095e-35 0.37940952255126048 2.5000000000000004 2.5000000000000004 1.0000000180025095e-35 0.37940952255126048 -0.23905020307833183 -0.12940952255126037 2.5000000000000004 3.5000000000000004 -0.34967987400574374 -0.15682597968613357 0.1294095225512602 -0.12940952255126037 -0.14105695054242431 3.5000000000000004 0.1294095225512602
decision_type=2 2 2 2 2 2 2 2 2 2 2 2 2 2 2 2 2 2 2 2 2 2 2 2 2 2 2 2 2 2 2 2 2 2 2 2 2 2 2 2 2 2 2 2 2 2 2 2 2 2 2 2 2 2 2 2 2 2 2 2 2 2 2 2 2 2 2 2 2 2 2 2 2 2 2 2 2 2 2 2 2 2 2 2 2 2 2 2 2 2 2 2 2 2 2 2 2 2 2 2 2 2 2 2 2 2 2 2 2 2 2 2 2 2 2 2 2 2 2 2 2 2 2 2 2 2
left_child=2 6 8 10 15 9 12 13 23 19 20 17 18 21 24 25 70 50 44 93 46 35 47 34 43 39 40 33 42 55 87 84 73 66 75 94 54 61 58 100 -20 68 81 67 102 69 86 53 62 83 77 76 79 95 98 78 -42 -34 115 -38 -12 120 -31 -16 -36 -15 117 -10 108 -17 -11 -35 -44 -26 106 -1 -33 -8 -21 -32 -41 -19 -67 121 -13 -43 -4 -14 -48 -45 114 -65 -83 -5 -6 -18 -69 -56 -7 -91 125 -40 -2 -73 -30 -60 -39 -58 116 -51 -25 -68 -28 -61 -55 -24 -23 -9 -50 -62 -22 122 -37 -64 -29 -3
right_child=1 4 3 5 7 36 11 27 14 16 60 31 30 65 63 45 22 28 26 29 37 41 38 110 32 -27 112 124 104 48 52 51 57 71 64 49 59 74 101 80 56 85 72 89 -46 -47 88 -49 118 109 -52 -53 -54 90 97 -57 107 -59 105 113 119 -63 123 91 -66 82 111 96 -70 -71 -72 103 -74 -75 -76 -77 -78 -79 -80 -81 -82 92 -84 -85 -86 -87 -88 -89 -90 99 -92 -93 -94 -95 -96 -97 -98 -99 -100 -101 -102 -103 -104 -105 -106 -107 -108 -109 -110 -111 -112 -113 -114 -115 -116 -117 -118 -119 -120 -121 -122 -123 -124 -125 -126 -127
leaf_value=-23.912756758884942 41.3639799924266 54.242514090955723 -0.72164332010626797 -43.461189837063067 7.7595433534194704 -8.25652878432291 12.42084978287563 -18.673734042391633 -62.60140889710199 -58.500487994245809 39.403168510200175 -7.8044722217062246 18.679293416929244 44.096318795363111 -15.093679711440558 29.809985378560146 -41.528464570839262 -25.893710156136372 -0.65927271132246923 -31.934441235702458 -14.599897815230356 35.187431494783503 -30.294023044656797 12.550829859396636 -43.304130004235219 91.797487310222166 25.360435897125598 27.855616024024268 0.51332663995879046 -17.537996571729462 -15.325313038378518 -41.30592546801978 -59.04378243299881 9.7904950380100075 -41.852357231564859 21.998382119794023 20.841793831446918 -0.39342830189119099 -17.06603498849951 66.13296133920656 14.943651718549944 45.283515066109089 -5.0002778617820356 -73.375212906890511 76.771015154474441 64.059770323555426 12.827071558462031 -19.439939876908635 -4.5763199021794483 37.46331201373436 48.418093907239268 -4.1600003091911564 20.484624606282793 -18.793296629035474 -19.389093327916456 -11.304190225144513 24.145075563447236 -44.785000639194699 -19.047783925699211 -1.8855567543378104 14.151801787999368 -3.5064565455158099 -3.6403826530463093 -40.529027486143583 -27.896843842449837 60.631157877691862 -3.7136248964299079 -53.152789510091146 48.413508084520672 45.711443315046438 -43.771642865837379 27.778656437227269 10.229909957357489 -29.377130559697441 9.5746372935510404 -9.3552319723447113 -25.166439670558614 27.812245282000447 -19.796300052878593 0.61140422849773679 79.52328055257496 -18.078824872564041 75.978981991306071 36.454668538704347 22.575425490570069 58.129812792098576 12.368260753036653 47.513580678991367 25.887815180132051 -67.797522430419917 -43.482630017447356 -23.420134953656216 -3.242580262102265 -30.079512549759365 21.848499879859737 -54.392530470313993 -39.561085067699473 -4.3114671234438138 9.5189897874803275 -55.972046156559081 64.205380283046424 -4.5567367392060758 55.526287492089011 11.220863143358709 25.941264821588433 -31.533843322609961 -13.926997615163074 36.099766457553415 23.619384630235853 50.693492135718117 -5.0995581488631601 12.038443561247236 52.995007366405233 11.052917972358577 -32.881882438209225 -43.442518699963898 49.186718760329029 -2.3929365008691978 6.7889810656589251 28.040473784512905 -26.028596199681939 9.7482935631604963 38.352643244852786 -15.683078575728914 44.213173379973171 37.673147936912436
leaf_weight=966 942 1152 1499 679 516 278 765 263 588 1141 754 551 599 239 743 931 1693 469 471 1047 1737 1421 1336 316 806 793 86 360 111 1536 681 708 1171 834 1106 929 868 1430 1141 1691 1193 807 952 772 274 317 1557 596 649 1197 268 243 256 299 622 1111 1059 1514 1815 588 433 931 1655 466 1238 840 314 713 925 771 785 912 727 1265 783 787 691 761 1415 693 728 562 697 640 99 1237 645 110 613 883 588 505 668 849 909 522 711 508 676 1014 591 597 465 293 524 476 408 670 350 470 427 801 542 656 2095 383 324 678 923 633 483 243 243 422 380 218
leaf_count=966 942 1152 1499 679 516 278 765 263 588 1141 754 551 599 239 743 931 1693 469 471 1047 1737 1421 1336 316 806 793 86 360 111 1536 681 708 1171 834 1106 929 868 1430 1141 1691 1193 807 952 772 274 317 1557 596 649 1197 268 243 256 299 622 1111 1059 1514 1815 588 433 931 1655 466 1238 840 314 713 925 771 785 912 727 1265 783 787 691 761 1415 693 728 562 697 640 99 1237 645 110 613 883 588 505 668 849 909 522 711 508 676 1014 591 597 465 293 524 476 408 670 350 470 427 801 542 656 2095 383 324 678 923 633 483 243 243 422 380 218
internal_value=0.000630989 29.2127 -21.0034 -13.4417 41.2737 -21.1877 11.2663 33.0611 -39.8476 -25.5252 4.742 -1.75232 24.3774 40.9175 -47.3142 60.4757 -32.7306 6.1248 32.3206 -16.0893 0.276991 36.8108 -29.4233 -22.6388 -51.4559 67.9471 24.4483 13.5789 -2.03262 -12.6029 5.00795 -21.7037 -43.9745 9.46442 -27.1816 28.7906 3.36658 -6.92761 -22.4442 63.609 19.8433 44.9551 -6.46215 -59.0462 51.1258 41.3085 9.91591 -36.3431 -7.00345 33.3925 24.3631 -29.0421 -2.92029 -38.2775 -4.86003 -20.7244 23.1473 -51.0233 -26.6311 11.4826 29.4722 -13.0839 -10.9625 -24.4941 -34.4967 64.4948 0.938432 -51.1629 39.4384 37.0359 -52.5231 18.0568 1.59649 -34.8156 0.475731 -17.3863 -33.3579 20.1096 -24.9691 -7.29276 70.194 -14.4222 67.636 27.0246 -3.1498 53.0825 3.22025 23.2135 16.5268 -64.9677 -33.5802 -31.6642 -10.0306 -36.0505 16.7558 -44.5833 -46.399 -12.6206 4.33589 -61.5093 55.4545 -12.7742 46.0806 23.7652 21.5042 -21.6546 -3.40356 28.7958 35.4545 41.2216 2.41397 7.60308 49.257 4.9407 -31.1309 -33.2471 37.8134 -6.95825 2.09689 22.4176 -17.097 22.7367 25.419 -6.09356 36.3038 51.6353
internal_weight=96000 40154 55846 39855 24014 27949 16140 16822 15991 23753 11906 8099 8041 11987 11151 7192 13467 5807 5702 10286 10086 10211 11541 4840 9437 5173 4021 4835 4013 8758 2339 2292 4756 4095 4097 5147 4196 5772 5748 4380 3393 5064 3378 4681 1681 2019 4314 5793 5185 3722 1794 1642 1630 5197 2084 3573 2922 2685 4010 2112 1820 3151 3613 1714 2344 1776 2056 2012 3020 1702 1926 2039 1679 2071 2621 1753 1399 1526 2462 1374 2419 1699 1537 2055 650 2044 2144 709 2170 2669 2982 971 1230 1528 1425 2215 1424 1130 954 1897 1961 1738 1407 1205 635 2291 1838 1729 2095 1667 743 1115 628 1244 2394 1719 1745 941 1572 1066 2220 1415 1172 2077 740 1370
internal_count=96000 40154 55846 39855 24014 27949 16140 16822 15991 23753 11906 8099 8041 11987 11151 7192 13467 5807 5702 10286 10086 10211 11541 4840 9437 5173 4021 4835 4013 8758 2339 2292 4756 4095 4097 5147 4196 5772 5748 4380 3393 5064 3378 4681 1681 2019 4314 5793 5185 3722 1794 1642 1630 5197 2084 3573 2922 2685 4010 2112 1820 3151 3613 1714 2344 1776 2056 2012 3020 1702 1926 2039 1679 2071 2621 1753 1399 1526 2462 1374 2419 1699 1537 2055 650 2044 2144 709 2170 2669 2982 971 1230 1528 1425 2215 1424 1130 954 1897 1961 1738 1407 1205 635 2291 1838 1729 2095 1667 743 1115 628 1244 2394 1719 1745 941 1572 1066 2220 1415 1172 2077 740 1370
is_linear=0
shrinkage=0.05


Tree=3
num_leaves=127
num_cat=0
split_feature=15 13 1 3 3 12 1 1 2 3 3 12 2 12 3 1 12 2 12 2 2 3 3 12 12 2 2 2 3 2 3 12 2 12 3 2 11 12 11 2 11 2 3 2 2 3 2 3 11 3 2 2 3 12 4 2 2 11 11 12 12 3 11 23 11 11 11 3 11 2 4 3 4 11 3 3 11 3 4 4 11 3 2 23 11 4 2 2 2 23 3 2 2 16 11 12 9 16 9 11 2 11 23 2 11 3 3 11 11 9 4 4 2 11 11 2 11 11 16 11 9 4 16 9 9 3
split_gain=2.12673e+10 3.13781e+09 2.87293e+09 2.02684e+09 1.36658e+09 1.07477e+09 9.29469e+08 8.89929e+08 8.12851e+08 7.41522e+08 5.96591e+08 4.74709e+08 4.56462e+08 3.80061e+08 3.80034e+08 3.70856e+08 3.55921e+08 3.49385e+08 3.14819e+08 2.70158e+08 2.47088e+08 2.46295e+08 2.07914e+08 1.98945e+08 1.91179e+08 1.83753e+08 2.43805e+08 1.7866e+08 1.64517e+08 1.61259e+08 1.5386e+08 1.51323e+08 1.46842e+08 1.42916e+08 1.39076e+08 1.3345e+08 1.31621e+08 1.28103e+08 1.03117e+08 1.02455e+08 9.66281e+07 9.52746e+07 8.30119e+07 7.98674e+07 1.00403e+08 7.96487e+07 7.68066e+07 6.95852e+07 6.94184e+07 6.88389e+07 6.8213e+07 1.02321e+08 6.64958e+07 6.64434e+07 6.34884e+07 6.31908e+07 6.2521e+07 6.22872e+07 5.98831e+07 5.78043e+07 5.72278e+07 5.51404e+07 5.40307e+07 5.33882e+07 5.30944e+07 5.14508e+07 4.87492e+07 4.78241e+07 4.76035e+07 4.64664e+07 4.56833e+07 4.46324e+07 4.44717e+07 4.35834e+07 4.30536e+07 4.18818e+07 4.04994e+07 4.00139e+07 3.91589e+07 3.91294e+07 3.8487e+07 3.79754e+07 3.72374e+07 3.42027e+07 3.35268e+07 3.23848e+07 3.15429e+07 4.18106e+07 3.08436e+07 3.01686e+07 2.98599e+07 2.93755e+07 4.09505e+07 2.90409e+07 2.88781e+07 2.85216e+07 2.81678e+07 2.8086e+07 2.80631e+07 2.70425e+07 2.63761e+07 2.6346e+07 2.59108e+07 2.55641e+07 2.5499e+07 2.52071e+07 2.45849e+07 2.41993e+07 2.36951e+07 2.34485e+07 2.34361e+07 2.32358e+07 2.25608e+07 2.21276e+07 2.19014e+07 2.09795e+07 2.09528e+07 2.08918e+07 2.0777e+07 2.05699e+07 2.05528e+07 2.04579e+07 2.04566e+07 2.03247e+07 1.98992e+07 1.96108e+07
threshold=1.0000000180025095e-35 1.0000000180025095e-35 4.5000000000000009 1.5000000000000002 1.5000000000000002 1.0000000180025095e-35 4.5000000000000009 4.5000000000000009 4.5000000000000009 1.5000000000000002 1.5000000000000002 1.0000000180025095e-35 7.5000000000000009 1.0000000180025095e-35 3.5000000000000004 4.5000000000000009 1.0000000180025095e-35 4.5000000000000009 1.0000000180025095e-35 4.5000000000000009 18.500000000000004 1.5000000000000002 3.5000000000000004 1.0000000180025095e-35 1.0000000180025095e-35 9.5000000000000018 19.500000000000004 7.5000000000000009 3.5000000000000004 7.5000000000000009 2.5000000000000004 1.0000000180025095e-35 4.5000000000000009 1.0000000180025095e-35 3.5000000000000004 4.5000000000000009 0.17122615145126377 1.0000000180025095e-35 -0.17604453218674124 18.500000000000004 -0.17604453218674124 18.500000000000004 2.5000000000000004 9.5000000000000018 19.500000000000004 2.5000000000000004 7.5000000000000009 2.5000000000000004 0.17122615145126377 3.5000000000000004 9.5000000000000018 19.500000000000004 2.5000000000000004 1.0000000180025095e-35 1.0000000180025095e-35 4.5000000000000009 4.5000000000000009 -0.34967987400574374 -0.17604453218674124 1.0000000180025095e-35 1.0000000180025095e-35 2.5000000000000004 -0.52331521582474616 2.6009465432423484 -0.17604453218674124 1.0000000180025095e-35 -0.34967987400574374 2.5000000000000004 0.17122615145126377 18.500000000000004 1.0000000180025095e-35 3.5000000000000004 1.0000000180025095e-35 -0.34967987400574374 2.5000000000000004 3.5000000000000004 0.34486149327026633 3.5000000000000004 1.0000000180025095e-35 1.0000000180025095e-35 0.34486149327026633 3.5000000000000004 18.500000000000004 2.6009465432423484 -0.17604453218674124 1.0000000180025095e-35 9.5000000000000018 19.500000000000004 4.5000000000000009 1.856897756198671 2.5000000000000004 9.5000000000000018 19.500000000000004 -0.22499999999999998 1.0000000180025095e-35 1.0000000180025095e-35 -0.20300670789271069 -0.57499999999999984 -0.079107193192137951 1.0000000180025095e-35 16.500000000000004 0.17122615145126377 2.6009465432423484 16.500000000000004 0.34486149327026633 2.5000000000000004 2.5000000000000004 -0.34967987400574374 0.51849683508926891 -0.10839253303045514 1.0000000180025095e-35 1.0000000180025095e-35 7.5000000000000009 0.17122615145126377 1.0000000180025095e-35 16.500000000000004 0.17122615145126377 0.17122615145126377 -0.42499999999999999 1.0000000180025095e-35 -0.19624855254540671 1.0000000180025095e-35 -1.0000000180025095e-35 -0.10388709613225248 -0.21089122246456532 3.5000000000000004
decision_type=2 2 2 2 2 2 2 2 2 2 2 2 2 2 2 2 2 2 2 2 2 2 2 2 2 2 2 2 2 2 2 2 2 2 2 2 2 2 2 2 2 2 2 2 2 2 2 2 2 2 2 2 2 2 2 2 2 2 2 2 2 2 2 2 2 2 2 2 2 2 2 2 2 2 2 2 2 2 2 2 2 2 2 2 2 2 2 2 2 2 2 2 2 2 2 2 2 2 2 2 2 2 2 2 2 2 2 2 2 2 2 2 2 2 2 2 2 2 2 2 2 2 2 2 2 2
left_child=2 7 3 11 15 8 12 10 22 23 31 17 53 19 30 24 20 57 25 63 28 60 45 32 29 77 42 95 47 -3 80 43 94 39 61 71 54 50 78 49 85 62 -27 -2 114 116 -17 -14 93 89 -23 83 -37 75 98 125 -13 118 115 69 86 -21 -31 108 -47 -36 -44 -20 120 99 123 -7 96 -54 -22 -6 122 -12 -19 124 -10 -28 90 106 -63 -32 -9 -88 -25 113 -18 -69 -93 -24 -4 -8 -40 -59 -16 -48 -64 -58 -68 -60 -51 -57 -52 -76 -11 -75 -66 -50 -26 -29 -45 -30 -5 -83 -1 -107 -34 -67 -49 -38 -42 -15
right_child=1 4 9 5 6 35 27 21 14 13 18 56 16 55 36 46 82 38 67 34 74 37 48 88 112 26 81 33 58 41 40 -33 68 -35 65 52 70 -39 72 -41 79 -43 66 44 -46 64 59 76 111 104 51 -53 73 -55 -56 105 101 97 103 -61 -62 84 100 -65 110 121 102 91 -70 -71 -72 -73 -74 109 107 -77 -78 -79 -80 -81 -82 117 -84 -85 -86 -87 87 -89 -90 -91 -92 92 -94 -95 -96 -97 -98 -99 -100 -101 -102 -103 -104 -105 -106 119 -108 -109 -110 -111 -112 -113 -114 -115 -116 -117 -118 -119 -120 -121 -122 -123 -124 -125 -126 -127
leaf_value=-25.867869808778067 17.139724796135194 38.68883026173711 -45.217937018283813 -61.525980591371848 5.2926899841549888 -17.665685217018549 -12.98475025368537 -9.0176270478727165 -41.625179196916235 -67.016401753263821 -15.619510358334432 15.810079833769088 24.371244350509244 -45.319762029905583 -16.843208358796513 17.350656081788266 49.462922809022842 -3.4862026496660015 10.868468181147721 -61.119917033282604 3.6692412607761535 -32.959714640537783 -39.253503795516053 -11.009917261707784 67.696544562203542 -0.62637888860146873 -11.780590188162268 -1.3277119729682305 38.117467479856394 59.347191444897739 -31.6413549107451 59.734689392736165 -21.469393125993793 39.635425804732847 -41.903452612932995 -9.4796305637633509 -3.5353409560764555 8.0756884404504294 12.375710481064237 -4.2713985473200973 -15.777288154354858 48.31202148264105 14.197094977781603 37.562685510220625 21.103137262790487 -47.529388853811902 36.122584151485448 30.835025284134094 -25.283371101641475 19.850186553453923 -28.318609834792298 -30.388998898547545 4.4784554633671574 38.559129752057942 -6.1905619883146228 -34.631222836402152 28.230604207656839 -12.866654646738409 51.668193957284657 64.965781968127402 34.088008921066923 -53.065199415884763 67.598744206810792 -47.580673576198365 -37.979668217033051 -32.460880344375475 23.941682050143164 22.880256747487905 -11.060027907022668 21.51968548172918 6.8077990930241334 -0.38568090339914546 21.784239532187989 21.888082735596583 17.953622119651744 20.915780382108878 48.124709469855787 -0.15732271832883576 9.1698242949512601 -6.0691607852399025 -28.173343037863901 -3.5814770797791526 49.05185684715493 8.2033770119545828 -40.245757481005874 -18.89805624783633 17.746885713986554 -5.7795936483447115 10.07298275124773 22.499019767747516 73.112625429322108 50.35013737321998 26.255192156396248 -27.777420077996442 -31.077042101764548 11.938726221580302 -0.1180612116266747 -1.5302504174377347 -28.90742432590617 51.82838125065205 79.847971944279692 43.586626353553136 38.47464030747355 63.772098096618315 33.78975731089875 -20.584882534477149 -7.7357973781196137 31.063730351061611 -56.861928367131874 6.1458407072973733 -24.806658858160787 -13.065849229519921 91.25177753757157 13.344766455510024 50.250356775142222 50.166084458244029 -47.976077339916031 12.232681756788049 -13.876444131035894 -5.6971423510104788 -35.742201440930366 -19.86266113430851 43.540709320479912 -15.305333680515728 -27.208699247934614 -27.426713334894892
leaf_weight=754 774 719 766 663 829 726 662 276 1336 1738 847 669 947 295 2285 336 164 2037 197 853 259 697 1380 274 139 471 852 568 759 1035 1772 542 1149 602 1478 382 1847 499 1905 672 1663 725 1193 721 752 1357 556 991 1309 842 172 702 910 309 1325 154 641 1014 928 268 209 936 947 681 1163 1168 1325 257 1147 289 1025 769 1027 1107 596 890 1007 826 872 914 902 491 275 293 1182 702 599 275 469 338 1028 542 267 942 708 138 591 1184 614 570 954 510 404 906 545 444 909 880 947 302 488 559 654 468 686 738 553 362 702 487 327 454 481 457 497 334
leaf_count=754 774 719 766 663 829 726 662 276 1336 1738 847 669 947 295 2285 336 164 2037 197 853 259 697 1380 274 139 471 852 568 759 1035 1772 542 1149 602 1478 382 1847 499 1905 672 1663 725 1193 721 752 1357 556 991 1309 842 172 702 910 309 1325 154 641 1014 928 268 209 936 947 681 1163 1168 1325 257 1147 289 1025 769 1027 1107 596 890 1007 826 872 914 902 491 275 293 1182 702 599 275 469 338 1028 542 267 942 708 138 591 1184 614 570 954 510 404 906 545 444 909 880 947 302 488 559 654 468 686 738 553 362 702 487 327 454 481 457 497 334
internal_value=0.000848913 27.7542 -19.9543 -12.7703 39.2127 -20.1294 31.4103 10.7043 -24.2503 -37.8574 18.1514 4.50525 38.8744 -44.9513 -17.3979 57.4556 43.2775 0.263149 10.6621 -48.8859 39.3396 -7.80329 -36.7388 -21.5078 64.5535 6.38492 11.103 12.901 43.6626 60.432 -25.149 35.458 -25.8238 17.1801 -42.5706 3.19834 -9.40544 -15.2332 7.27698 13.232 -20.678 64.6905 18.8523 30.953 35.8949 -44.5718 39.2465 35.9465 -28.8335 17.4922 -19.4291 -14.8726 9.831 17.2411 -15.264 -23.2717 28.0009 -12.0816 51.5856 43.605 10.0835 -50.3127 68.7171 -60.2604 -40.174 -35.1369 21.9912 33.5693 -18.7158 39.5162 -1.96947 -8.78338 13.0285 13.0147 22.4882 13.3889 40.3567 -7.99012 0.309406 -14.7501 -36.2186 -4.32032 66.0304 -6.92866 -45.9334 -28.0345 5.69511 10.3462 2.29378 9.54938 69.903 37.7504 42.4401 -34.6118 -38.4514 -8.67591 9.41859 -6.76353 -19.4075 44.1121 73.7847 35.0667 27.3577 57.679 25.3479 -15.9377 -11.0339 25.7857 -63.4574 18.5207 -34.1034 -21.6362 87.2134 5.30687 43.78 44.0868 -55.4084 3.13627 -20.0998 -12.8117 -24.6535 -28.949 35.0136 -5.87556 -18.4189 -35.8771
internal_weight=96000 40154 55846 39855 24014 27949 16822 16140 23753 15991 11509 11906 11987 11151 15339 7192 9959 10086 8034 9437 8492 4631 8414 4840 5173 6771 5098 4835 6757 4380 7786 3475 4097 4035 6071 4196 7553 3272 6432 3433 5548 3661 3393 2933 2159 4224 2019 3426 4190 2761 2773 2076 2701 2028 4224 1714 1820 3654 3331 1683 1359 2971 2936 3366 3008 3100 2922 1263 2623 1415 3329 1495 3523 2319 1735 1719 2479 1673 2909 3074 2238 1705 1467 1374 2118 2474 1150 874 743 1374 1192 1066 809 2322 1474 800 2496 2198 2899 1126 1901 1151 1729 1834 1387 1085 1081 1476 2685 1409 1651 1868 793 1036 1407 1497 1216 853 1456 931 1476 1622 1472 2304 2160 629
internal_count=96000 40154 55846 39855 24014 27949 16822 16140 23753 15991 11509 11906 11987 11151 15339 7192 9959 10086 8034 9437 8492 4631 8414 4840 5173 6771 5098 4835 6757 4380 7786 3475 4097 4035 6071 4196 7553 3272 6432 3433 5548 3661 3393 2933 2159 4224 2019 3426 4190 2761 2773 2076 2701 2028 4224 1714 1820 3654 3331 1683 1359 2971 2936 3366 3008 3100 2922 1263 2623 1415 3329 1495 3523 2319 1735 1719 2479 1673 2909 3074 2238 1705 1467 1374 2118 2474 1150 874 743 1374 1192 1066 809 2322 1474 800 2496 2198 2899 1126 1901 1151 1729 1834 1387 1085 1081 1476 2685 1409 1651 1868 793 1036 1407 1497 1216 853 1456 931 1476 1622 1472 2304 2160 629
is_linear=0
shrinkage=0.05


Tree=4
num_leaves=127
num_cat=0
split_feature=15 13 20 3 3 19 2 1 3 1 2 3 1 2 1 22 2 3 3 3 2 23 22 2 2 10 3 3 2 10 22 10 3 23 3 10 3 2 10 3 10 2 10 4 2 3 3 3 23 23 10 3 10 22 10 22 10 10 10 10 4 10 10 3 3 23 23 2 3 3 4 3 10 2 10 23 10 23 10 4 10 10 4 10 2 10 3 3 4 10 23 22 10 4 4 23 10 10 10 2 4 10 4 4 2 10 23 4 10 2 23 3 4 2 3 4 23 4 2 10 10 4 2 10 4 23
split_gain=1.91964e+10 2.83229e+09 2.59317e+09 1.82943e+09 1.23356e+09 9.06408e+08 8.51331e+08 8.38941e+08 6.69283e+08 4.16556e+08 4.12e+08 4.04633e+08 4.01633e+08 3.68887e+08 3.34687e+08 3.21307e+08 2.95772e+08 2.79569e+08 2.76935e+08 2.34602e+08 2.23021e+08 1.7899e+08 1.7263e+08 1.61262e+08 1.58161e+08 1.52139e+08 1.48494e+08 1.45677e+08 1.45546e+08 1.34165e+08 1.29003e+08 1.13808e+08 1.10112e+08 1.0491e+08 1.01673e+08 9.59174e+07 9.43704e+07 9.24831e+07 8.98339e+07 8.97174e+07 8.90493e+07 8.59868e+07 7.9527e+07 7.60064e+07 6.93324e+07 6.71387e+07 6.44323e+07 6.37353e+07 6.33735e+07 6.32548e+07 6.28333e+07 6.273e+07 6.10149e+07 5.99926e+07 5.91472e+07 5.22041e+07 5.06231e+07 5.01773e+07 4.98216e+07 4.76235e+07 4.62909e+07 4.59833e+07 4.45943e+07 4.42992e+07 4.3088e+07 4.27356e+07 4.2661e+07 4.19366e+07 4.11999e+07 3.92746e+07 3.8497e+07 3.78027e+07 3.65405e+07 3.35932e+07 3.26604e+07 3.20051e+07 3.14746e+07 3.13232e+07 3.09757e+07 2.97762e+07 2.9287e+07 2.92124e+07 2.83378e+07 2.77591e+07 2.75004e+07 2.72303e+07 2.71744e+07 2.69191e+07 2.67154e+07 2.63193e+07 2.58093e+07 2.57522e+07 2.57352e+07 2.54605e+07 2.51901e+07 2.49914e+07 2.49304e+07 2.43866e+07 2.37865e+07 2.35856e+07 2.28428e+07 2.22029e+07 2.1938e+07 2.15935e+07 2.03249e+07 2.0256e+07 2.00233e+07 1.93546e+07 1.85509e+07 1.82778e+07 1.79622e+07 1.79282e+07 1.77529e+07 1.76753e+07 1.75491e+07 1.74943e+07 1.74369e+07 1.73666e+07 1.70661e+07 1.70506e+07 1.69751e+07 1.68148e+07 1.67836e+07 1.63217e+07 1.63017e+07 1.60566e+07
threshold=1.0000000180025095e-35 1.0000000180025095e-35 -0.60785761079279388 1.5000000000000002 1.5000000000000002 1.0000000180025095e-35 4.5000000000000009 4.5000000000000009 1.5000000000000002 4.5000000000000009 7.5000000000000009 3.5000000000000004 4.5000000000000009 4.5000000000000009 4.5000000000000009 1.0000000180025095e-35 4.5000000000000009 1.5000000000000002 1.5000000000000002 3.5000000000000004 18.500000000000004 1.856897756198671 1.0000000180025095e-35 7.5000000000000009 4.5000000000000009 1.5000000000000002 3.5000000000000004 2.5000000000000004 7.5000000000000009 1.5000000000000002 1.0000000180025095e-35 1.5000000000000002 1.5000000000000002 2.6009465432423484 1.5000000000000002 1.5000000000000002 3.5000000000000004 18.500000000000004 1.5000000000000002 3.5000000000000004 1.5000000000000002 18.500000000000004 1.5000000000000002 1.0000000180025095e-35 7.5000000000000009 3.5000000000000004 2.5000000000000004 2.5000000000000004 -1.0000000180025095e-35 1.856897756198671 1.5000000000000002 2.5000000000000004 1.5000000000000002 1.0000000180025095e-35 1.5000000000000002 1.0000000180025095e-35 3.5000000000000004 1.5000000000000002 3.5000000000000004 1.5000000000000002 1.0000000180025095e-35 1.5000000000000002 1.5000000000000002 2.5000000000000004 2.5000000000000004 1.856897756198671 1.856897756198671 18.500000000000004 3.5000000000000004 3.5000000000000004 1.4868078895231458 3.5000000000000004 1.5000000000000002 18.500000000000004 1.5000000000000002 2.6009465432423484 1.5000000000000002 -1.0000000180025095e-35 1.5000000000000002 -0.37331407808604739 1.5000000000000002 1.5000000000000002 -0.37331407808604739 3.5000000000000004 16.500000000000004 3.5000000000000004 2.5000000000000004 2.5000000000000004 1.0000000180025095e-35 3.5000000000000004 1.856897756198671 1.0000000180025095e-35 1.5000000000000002 1.4868078895231458 1.0000000180025095e-35 -1.0000000180025095e-35 3.5000000000000004 1.5000000000000002 3.5000000000000004 16.500000000000004 1.4868078895231458 1.5000000000000002 1.4868078895231458 -0.37331407808604739 7.5000000000000009 3.5000000000000004 1.856897756198671 1.0000000180025095e-35 1.5000000000000002 16.500000000000004 -0.0019345268463133471 3.5000000000000004 1.4868078895231458 18.500000000000004 3.5000000000000004 1.0000000180025095e-35 2.6009465432423484 -1.1173628651297245 16.500000000000004 3.5000000000000004 1.5000000000000002 1.0000000180025095e-35 16.500000000000004 3.5000000000000004 1.0000000180025095e-35 1.856897756198671
decision_type=2 2 2 2 2 2 2 2 2 2 2 2 2 2 2 2 2 2 2 2 2 2 2 2 2 2 2 2 2 2 2 2 2 2 2 2 2 2 2 2 2 2 2 2 2 2 2 2 2 2 2 2 2 2 2 2 2 2 2 2 2 2 2 2 2 2 2 2 2 2 2 2 2 2 2 2 2 2 2 2 2 2 2 2 2 2 2 2 2 2 2 2 2 2 2 2 2 2 2 2 2 2 2 2 2 2 2 2 2 2 2 2 2 2 2 2 2 2 2 2 2 2 2 2 2 2
left_child=2 5 8 13 14 12 19 10 24 17 53 21 18 38 22 20 45 78 80 35 26 31 28 91 74 43 49 -18 -3 48 37 51 -14 42 -11 46 65 47 70 66 60 54 111 103 -16 106 -5 -25 -15 57 77 -8 79 71 94 67 95 86 82 -23 -21 84 100 -33 -36 81 97 99 125 -34 110 -6 112 87 -1 92 107 -26 115 -28 121 -20 -27 -44 -49 124 -12 -17 -48 -65 -37 116 -66 -50 118 -31 -40 -19 -54 -46 -41 -35 -45 -13 -24 -52 -10 -47 -70 -89 -4 -29 -38 -106 -39 -7 -9 -53 -30 -63 -73 -2 -88 -59 -42 -22
right_child=1 4 3 6 7 9 11 23 16 34 15 25 32 29 44 73 27 39 36 40 68 59 104 30 50 58 52 33 41 56 -32 63 69 101 64 90 72 114 96 62 85 -43 83 102 55 76 88 61 93 -51 105 117 98 -55 -56 -57 -58 123 -60 -61 -62 119 -64 89 75 -67 -68 -69 108 -71 -72 120 -74 -75 -76 -77 -78 -79 -80 -81 -82 -83 -84 -85 -86 -87 122 109 -90 -91 -92 -93 -94 -95 -96 -97 -98 -99 -100 -101 -102 -103 -104 -105 113 -107 -108 -109 -110 -111 -112 -113 -114 -115 -116 -117 -118 -119 -120 -121 -122 -123 -124 -125 -126 -127
leaf_value=-27.342540657542532 46.821462788121167 36.757075713435817 -10.429152934073322 -44.775638015554875 5.0283743301156054 22.560080142525194 -27.404435860170846 -16.303520552217403 -63.047121606485739 -2.9371418358988137 26.253040568646494 -7.2732402259867728 21.044811019721799 9.8229203299030914 16.485697406003311 47.00476484079072 -54.256773479029768 -8.8809138219875674 14.953260936521284 -22.318699609584595 9.93936927613656 -2.3194332472026185 64.335894701276501 -2.1072377986798201 -15.070208952002609 -17.830059291814138 46.793098952485025 -36.478108863593455 60.597150875212748 -0.91272839984715282 37.656941069805406 -42.092212728581288 -10.474505596723324 -16.133876247696588 -46.073602031836529 -51.633394145688513 32.414564784325755 -12.169693834731827 -14.591428897230779 8.8138569544665391 -33.623698258096262 45.899747874677679 -43.138842433568612 4.2505900634164089 34.27140615454492 -46.569979718840408 -32.625005315402674 18.396860973364589 18.909885191600633 46.135316371256877 -20.387630107223856 -23.79855824231359 42.887772279138233 36.637392119499943 55.51977980816951 61.729566908485396 -14.329343151792811 23.496864980990484 -29.172352118071696 -17.964217477011129 -9.3840711716439831 13.354343029218837 -4.5731841311364381 -25.147154948011597 -21.426432652743927 26.836830011901839 3.2493088391872607 20.447411343479981 34.618693996962683 5.0427847126490777 15.313966589480115 25.031873735120669 20.210839735122857 46.608150006359907 -41.715536923439281 -9.0207316845971111 -55.877498815365158 -2.5853622595798469 12.817477708745526 59.080263690677299 36.691283573322472 0.020458138581514362 -7.1436182195429367 -61.6400745404353 31.875583991015596 -48.782527528334299 33.60585867025312 62.21090605595198 -20.921706367535478 -43.144900427299916 -37.067529482370404 11.346084273770559 -37.708788226938502 31.874944705183793 79.723428914100467 9.5545594500504389 -32.989952047754223 -22.268786439473814 22.922161991139252 48.954319757174147 30.213811807768685 -30.092194457773566 15.92491777769032 0.10083203671249306 91.187868929131099 -39.29789389369067 -51.066645279391196 -33.240155360112809 18.831665346643234 76.221634007078237 -1.2844042379867249 -28.861014772158725 52.368239935012099 69.521673662458156 3.9696464995094809 35.899179893387689 4.2115067108287363 -13.283387332454328 72.469164233687366 -6.2329997484972992 10.584285346631892 60.620677889168988 45.999137287511239 4.5951266330918843 -22.102826618435081 25.416712341499331
leaf_weight=1129 796 719 771 912 829 815 1542 534 1509 650 562 2316 709 2293 336 164 1007 991 952 2285 668 1455 139 390 943 1029 860 1462 660 1034 602 824 797 840 236 1307 1244 334 1288 1163 996 725 1450 1171 543 902 1605 796 2119 836 905 468 1027 309 1036 268 403 761 464 730 995 712 693 1395 713 495 508 289 557 833 284 571 706 275 619 320 678 1075 620 1265 554 499 1566 243 732 226 568 501 712 240 414 138 373 464 565 1270 215 519 179 583 139 435 613 1737 515 169 496 410 286 527 1765 1719 125 139 338 359 128 2490 675 131 319 331 564 135 457 224
leaf_count=1129 796 719 771 912 829 815 1542 534 1509 650 562 2316 709 2293 336 164 1007 991 952 2285 668 1455 139 390 943 1029 860 1462 660 1034 602 824 797 840 236 1307 1244 334 1288 1163 996 725 1450 1171 543 902 1605 796 2119 836 905 468 1027 309 1036 268 403 761 464 730 995 712 693 1395 713 495 508 289 557 833 284 571 706 275 619 320 678 1075 620 1265 554 499 1566 243 732 226 568 501 712 240 414 138 373 464 565 1270 215 519 179 583 139 435 613 1737 515 169 496 410 286 527 1765 1719 125 139 338 359 128 2490 675 131 319 331 564 135 457 224
internal_value=0.00108469 26.3687 -18.9577 -12.1324 37.255 10.17 -19.124 29.842 -35.9667 -1.63662 36.9333 -12.6554 22.0605 4.28029 54.5873 41.1165 -42.7062 5.48763 29.2165 -30.898 37.375 -20.0409 61.3302 12.2573 -20.4339 -5.06254 41.482 -36.6107 57.4138 10.9249 16.3226 -23.9605 4.61062 -33.7125 -19.6811 -38.6008 22.0824 12.5716 -7.37495 -1.84859 -23.203 61.4595 -37.055 -0.328408 37.2889 -53.6127 -33.4963 16.6191 15.8796 34.1513 -13.6308 -19.2258 49.0093 16.3807 65.2848 41.4299 1.99782 30.2668 -14.0929 -7.55212 -18.399 19.699 5.66907 -32.6136 -26.3035 14.1612 -9.27971 37.5443 21.3653 -2.54627 -2.11098 12.7202 29.5008 62.7347 -32.4532 -22.9547 -47.0393 -8.42404 21.8899 54.1319 46.2583 9.82141 -11.3864 -45.8292 24.8706 -32.5712 35.3343 66.413 -29.0392 -27.8138 -48.153 -8.24218 -27.0484 21.2503 70.5772 4.85864 -17.2435 -13.4941 39.9458 41.9104 11.1199 -20.916 8.26868 -4.11368 82.8627 -23.3971 -60.1103 -42.4329 29.2914 69.4605 -4.06763 -32.3722 34.2734 86.6962 -4.05815 26.6662 -12.3365 -14.9545 66.6496 10.3067 19.8712 50.9244 39.8158 20.6573 -30.0178 13.8502
internal_weight=96000 40154 55846 39855 24014 16140 27949 16822 15991 8099 11987 18040 8041 11906 7192 9959 11151 5807 5702 9909 8492 9144 5173 4835 4840 8896 6757 7156 4380 7583 4035 6959 2339 6149 2292 4950 4021 3433 4323 4013 4959 3661 4874 5837 2019 3995 3229 2761 4876 3426 3092 4500 3331 2028 2936 1683 2707 2590 3059 2185 3280 2371 1995 2459 1642 1946 2018 1415 1735 1630 2820 1719 2075 1467 1748 1406 1990 2018 1794 2125 1681 1451 2595 1693 1528 1679 1694 1192 2317 1635 1721 800 1086 2583 1900 2304 1503 1510 1206 1126 1302 1275 1784 4053 793 1074 2005 1312 843 1028 2536 3181 1369 654 672 1174 662 2958 1335 843 890 1127 1132 896 1453 892
internal_count=96000 40154 55846 39855 24014 16140 27949 16822 15991 8099 11987 18040 8041 11906 7192 9959 11151 5807 5702 9909 8492 9144 5173 4835 4840 8896 6757 7156 4380 7583 4035 6959 2339 6149 2292 4950 4021 3433 4323 4013 4959 3661 4874 5837 2019 3995 3229 2761 4876 3426 3092 4500 3331 2028 2936 1683 2707 2590 3059 2185 3280 2371 1995 2459 1642 1946 2018 1415 1735 1630 2820 1719 2075 1467 1748 1406 1990 2018 1794 2125 1681 1451 2595 1693 1528 1679 1694 1192 2317 1635 1721 800 1086 2583 1900 2304 1503 1510 1206 1126 1302 1275 1784 4053 793 1074 2005 1312 843 1028 2536 3181 1369 654 672 1174 662 2958 1335 843 890 1127 1132 896 1453 892
is_linear=0
shrinkage=0.05


Tree=5
num_leaves=127
num_cat=0
split_feature=13 25 1 1 3 3 3 1 12 12 3 2 3 3 12 18 1 12 12 2 3 12 2 10 12 19 12 18 2 3 3 2 2 12 23 18 12 11 2 12 10 10 11 2 2 3 10 3 2 2 18 10 18 2 11 3 23 11 3 12 10 10 18 10 23 2 2 2 11 11 23 23 2 2 11 2 12 2 3 10 2 2 11 3 23 11 11 18 10 10 2 2 3 2 11 11 11 11 11 2 10 2 2 23 11 23 11 23 11 11 3 12 11 2 10 2 10 2 18 10 10 10 2 10 10 11
split_gain=1.60485e+10 3.47626e+09 1.75893e+09 1.29832e+09 1.22981e+09 1.11355e+09 9.46726e+08 7.5729e+08 7.01154e+08 5.63704e+08 4.82762e+08 3.71876e+08 3.63013e+08 3.24325e+08 3.20759e+08 3.05755e+08 3.02083e+08 2.90107e+08 2.70974e+08 2.6601e+08 2.60708e+08 2.55822e+08 2.01277e+08 1.97389e+08 1.90622e+08 1.84957e+08 1.5593e+08 1.45561e+08 1.45553e+08 1.38605e+08 1.35328e+08 1.31375e+08 1.28227e+08 1.28053e+08 1.27036e+08 1.17208e+08 1.16449e+08 1.13716e+08 1.05316e+08 1.00575e+08 9.28467e+07 9.14891e+07 9.04946e+07 8.59582e+07 8.34797e+07 8.02334e+07 7.921e+07 7.8826e+07 7.7615e+07 7.74433e+07 6.94651e+07 6.66962e+07 6.40178e+07 6.25855e+07 6.23361e+07 5.96502e+07 5.84565e+07 5.79392e+07 5.49693e+07 5.41659e+07 5.34817e+07 5.34025e+07 5.18148e+07 5.05336e+07 5.01689e+07 4.89786e+07 4.81136e+07 4.7208e+07 4.47141e+07 4.45154e+07 4.40418e+07 4.40412e+07 4.37764e+07 4.09932e+07 4.07639e+07 3.95738e+07 3.95683e+07 3.81851e+07 3.71889e+07 3.66307e+07 3.61202e+07 3.59504e+07 3.54705e+07 3.54581e+07 3.53949e+07 3.53623e+07 3.51309e+07 3.49416e+07 3.46352e+07 3.40844e+07 3.35141e+07 3.27517e+07 3.22542e+07 3.21605e+07 3.1696e+07 3.15262e+07 3.11186e+07 3.08203e+07 2.88411e+07 2.82366e+07 2.81024e+07 2.74689e+07 2.73424e+07 2.72967e+07 2.71977e+07 2.6457e+07 2.44179e+07 2.43279e+07 2.42712e+07 2.39672e+07 2.38611e+07 2.32517e+07 2.30737e+07 2.30525e+07 2.30311e+07 2.26955e+07 2.20696e+07 2.19487e+07 2.15989e+07 2.14281e+07 2.13057e+07 2.12243e+07 2.06887e+07 2.0497e+07 2.03747e+07 2.02898e+07
threshold=1.0000000180025095e-35 1.0000000180025095e-35 4.5000000000000009 4.5000000000000009 1.5000000000000002 1.5000000000000002 1.5000000000000002 4.5000000000000009 1.0000000180025095e-35 1.0000000180025095e-35 1.5000000000000002 7.5000000000000009 2.5000000000000004 1.5000000000000002 1.0000000180025095e-35 -0.78656609248549303 4.5000000000000009 1.0000000180025095e-35 1.0000000180025095e-35 11.500000000000002 2.5000000000000004 1.0000000180025095e-35 18.500000000000004 1.5000000000000002 1.0000000180025095e-35 -1.0000000180025095e-35 1.0000000180025095e-35 -0.78656609248549303 7.5000000000000009 2.5000000000000004 2.5000000000000004 7.5000000000000009 11.500000000000002 1.0000000180025095e-35 2.6009465432423484 -0.78656609248549303 1.0000000180025095e-35 0.17122615145126377 11.500000000000002 1.0000000180025095e-35 1.5000000000000002 1.5000000000000002 0.17122615145126377 19.500000000000004 18.500000000000004 2.5000000000000004 1.5000000000000002 3.5000000000000004 18.500000000000004 19.500000000000004 -0.78656609248549303 1.5000000000000002 -0.78656609248549303 7.5000000000000009 -0.17604453218674124 3.5000000000000004 2.6009465432423484 0.17122615145126377 3.5000000000000004 1.0000000180025095e-35 1.5000000000000002 1.5000000000000002 -0.78656609248549303 1.5000000000000002 2.6009465432423484 11.500000000000002 4.5000000000000009 18.500000000000004 1.0000000180025095e-35 -0.17604453218674124 2.6009465432423484 2.6009465432423484 10.500000000000002 4.5000000000000009 -0.17604453218674124 11.500000000000002 1.0000000180025095e-35 19.500000000000004 3.5000000000000004 1.5000000000000002 4.5000000000000009 19.500000000000004 0.34486149327026633 2.5000000000000004 2.6009465432423484 -0.34967987400574374 -0.34967987400574374 -0.78656609248549303 1.5000000000000002 1.5000000000000002 4.5000000000000009 4.5000000000000009 3.5000000000000004 4.5000000000000009 1.0000000180025095e-35 0.17122615145126377 1.0000000180025095e-35 0.17122615145126377 -0.34967987400574374 19.500000000000004 1.5000000000000002 4.5000000000000009 4.5000000000000009 2.6009465432423484 1.0000000180025095e-35 1.856897756198671 1.0000000180025095e-35 1.856897756198671 0.17122615145126377 0.34486149327026633 3.5000000000000004 1.0000000180025095e-35 0.34486149327026633 4.5000000000000009 1.5000000000000002 4.5000000000000009 3.5000000000000004 11.500000000000002 -0.78656609248549303 1.5000000000000002 1.5000000000000002 3.5000000000000004 9.5000000000000018 1.5000000000000002 3.5000000000000004 -0.6969505576437488
decision_type=2 2 2 2 2 2 2 2 2 2 2 2 2 2 2 2 2 2 2 2 2 2 2 2 2 2 2 2 2 2 2 2 2 2 2 2 2 2 2 2 2 2 2 2 2 2 2 2 2 2 2 2 2 2 2 2 2 2 2 2 2 2 2 2 2 2 2 2 2 2 2 2 2 2 2 2 2 2 2 2 2 2 2 2 2 2 2 2 2 2 2 2 2 2 2 2 2 2 2 2 2 2 2 2 2 2 2 2 2 2 2 2 2 2 2 2 2 2 2 2 2 2 2 2 2 2
left_child=1 2 4 6 14 16 21 11 12 20 33 59 62 39 27 25 26 22 29 46 88 41 30 34 47 114 31 43 111 118 -13 -2 79 50 42 49 44 51 84 74 56 57 66 -1 55 -10 64 101 61 -31 77 71 81 -18 102 105 69 91 107 83 86 96 99 94 95 -52 -22 76 -49 -32 89 -21 122 -44 -5 -64 106 -4 -24 109 124 -47 116 -7 104 -16 -34 -20 115 -39 -56 -3 -19 -36 -40 -17 -33 -27 -74 -6 -85 -15 -25 -48 -37 125 -55 -11 -67 -29 -26 -9 -57 -59 -14 -8 -42 -89 -12 -77 -60 -53 -54 -76 -43 -30
right_child=5 3 10 13 8 7 9 28 45 58 18 17 15 24 85 19 53 92 87 37 23 -23 78 54 110 97 -28 32 36 35 40 48 60 -35 93 38 -38 70 63 -41 82 80 73 -45 -46 52 103 68 -50 -51 65 121 72 67 90 112 -58 113 120 -61 -62 -63 75 -65 -66 108 -68 -69 -70 -71 -72 -73 98 -75 123 119 -78 -79 -80 -81 -82 -83 -84 100 -86 -87 -88 117 -90 -91 -92 -93 -94 -95 -96 -97 -98 -99 -100 -101 -102 -103 -104 -105 -106 -107 -108 -109 -110 -111 -112 -113 -114 -115 -116 -117 -118 -119 -120 -121 -122 -123 -124 -125 -126 -127
leaf_value=43.463714595883658 34.921774695393111 -12.181216856567062 20.044888518735767 -37.094775155182212 2.9378311562243802 -6.6833860396580267 -45.630517329663306 -11.720578923369246 0.89348773255318159 -14.219145574656963 -32.130615044777038 21.848216158036568 28.614570799486913 -60.021130560334839 33.051302045819348 -0.95660833348484164 15.663858341166103 51.989884912116658 12.408044042142469 -17.042667342318442 -34.541628255834794 20.263610787282698 13.159643410055379 -46.285507956595808 -34.389842514496351 -7.5446349774373207 78.73376992982341 21.688089071440562 -6.0774304904758374 1.3755539777025714 36.747475189185657 60.28710029725238 3.9967995727379826 19.821477607041036 -14.067683084220565 -31.162783152279104 35.777216567439631 -4.3368400855505103 -37.328090632047399 -3.3837722917941386 31.046020939459527 -17.346331610162487 -22.20129903622313 18.943088253506946 -3.8558475340209784 50.567946491175462 -9.6552970440768888 -50.558295492384815 43.607921691425247 -24.4387097444598 -1.2858647376787573 -24.312640497503455 21.690643727668498 32.23883588749802 -33.747625454120424 17.874790259057022 59.018616556196072 0.79527195178124943 9.8477923911874257 34.81143220830733 -1.1610664186874107 52.746467739241325 -17.888262405517196 -44.884891916471666 20.342252509059577 -22.125441444383164 -21.982144752739408 22.768487401490958 -37.545210189464676 49.252392649853547 5.6632316884972163 -1.8009765079617504 6.4060704971840083 -9.3393741860044877 -19.191224129701173 -27.895639481493163 63.542091070184135 -5.3453361468729774 27.829977199217723 13.300965876386186 -6.2689633778205778 24.938203020665185 41.674109123121461 20.047333753882775 -6.8192648850525091 50.126692463690397 16.61884862385017 1.813669694626298 -54.657489174385752 -16.455927654217401 -20.83141755418119 0.97003214118639625 67.130400522867845 0.25939128077049017 -24.50475300937288 11.122880694434031 73.445934323411805 7.0795156719977488 20.416488810335071 -21.180329908650108 5.8449970574906036 -49.213875274976097 -33.406095297074813 5.9460544629370586 -17.144634959338799 20.522511003066658 47.142643646133344 2.6827523999088689 -9.0223648262214358 34.828757116435327 -18.7281176196526 10.782861760503097 31.129448186207171 12.982074713522668 15.331621603625834 -31.48317748492931 11.877745163547861 -13.819800283806215 -50.370528440240754 -41.642257457664115 -4.0535664382808418 -41.240810164894377 41.968474654852173 -32.416502574069241 -35.542271304236515 9.0767115144736241
leaf_weight=685 719 1285 319 1071 242 219 790 662 475 846 215 947 948 1710 510 1217 336 733 267 2058 2045 1067 892 1131 461 825 793 880 318 564 1307 928 918 529 1029 664 602 1649 962 423 1056 1117 1659 752 672 288 1200 1318 725 598 841 1158 257 556 1334 842 803 1073 833 309 1281 1036 708 969 637 819 1229 345 1367 1620 686 616 605 992 841 835 212 275 843 746 782 267 847 948 393 785 1382 357 675 895 817 749 734 632 987 970 972 638 939 242 552 959 673 365 733 338 570 284 625 583 525 138 545 607 504 461 177 603 771 441 411 223 254 456 179 718
leaf_count=685 719 1285 319 1071 242 219 790 662 475 846 215 947 948 1710 510 1217 336 733 267 2058 2045 1067 892 1131 461 825 793 880 318 564 1307 928 918 529 1029 664 602 1649 962 423 1056 1117 1659 752 672 288 1200 1318 725 598 841 1158 257 556 1334 842 803 1073 833 309 1281 1036 708 969 637 819 1229 345 1367 1620 686 616 605 992 841 835 212 275 843 746 782 267 847 948 393 785 1382 357 675 895 817 749 734 632 987 970 972 638 939 242 552 959 673 365 733 338 570 284 625 583 525 138 545 607 504 461 177 603 771 441 411 223 254 456 179 718
internal_value=0.00136572 -11.8062 -2.0234 -24.1468 4.60241 35.3956 -17.7411 28.3524 -2.13436 -24.4598 -18.5503 35.0898 -6.10194 -40.0682 20.5234 -3.10107 51.8632 39.0641 -25.2042 -6.71814 -28.4196 -2.22276 35.5088 -25.5734 -46.3222 11.3819 58.2693 16.4128 11.6453 -29.0766 39.4105 54.5471 12.8737 -2.76595 -20.8467 -26.1543 15.5075 -12.5759 -29.6645 -25.8502 42.2689 -6.36798 -24.2724 30.6539 11.9437 19.7974 3.00541 -50.0448 58.3908 -11.9188 -6.92171 -18.1505 23.236 35.429 -34.632 15.7892 46.9994 -1.66629 -1.99412 15.5635 7.02636 62.0251 -23.8325 -35.5245 8.00479 -10.8808 -29.8352 39.3633 -43.9495 43.683 -5.57402 -13.5335 19.1497 -17.3937 -29.8603 -27.4103 43.6221 8.30092 20.2996 22.3453 -14.7664 38.305 33.7672 12.0854 -20.0973 43.4327 11.5849 -3.56067 -45.4527 -8.60523 -28.8537 -7.3403 59.6059 -8.61944 -30.8501 4.40364 67.054 -1.1667 14.9344 -9.14005 14.8283 -56.1579 -41.5019 -6.01517 -23.825 8.39606 39.8185 -9.97261 -16.4643 26.9448 -26.0781 -7.83011 23.1017 5.20359 24.0177 -40.4465 28.3062 -8.01026 -46.4299 -32.6755 5.25541 -27.074 31.8323 -23.8624 -19.885 4.42377
internal_weight=96000 71986 40155 31831 28664 24014 22700 16822 20142 15841 11491 11987 17057 9131 8522 14589 7192 9959 8083 11674 13467 6859 8492 11541 6340 2915 5173 7227 4835 6856 6757 4380 5790 3408 7586 5870 4035 7285 4708 2791 5810 5792 5925 1437 3433 3085 4389 5354 3661 1162 2879 4055 2610 2019 3955 2761 3730 3714 2374 2028 3581 2936 2468 2918 2824 2285 3274 1683 2685 2927 3230 2674 2055 2651 2368 1984 1338 594 1735 2209 2078 555 2080 1719 1790 1295 2300 1227 1926 2544 2151 2034 1467 1661 1949 2187 1900 1463 1544 484 1500 2669 1804 1565 1397 1374 1126 1130 1444 1463 986 800 1387 1680 1452 1251 1233 960 986 1276 1244 1381 511 1297 1296 1036
internal_count=96000 71986 40155 31831 28664 24014 22700 16822 20142 15841 11491 11987 17057 9131 8522 14589 7192 9959 8083 11674 13467 6859 8492 11541 6340 2915 5173 7227 4835 6856 6757 4380 5790 3408 7586 5870 4035 7285 4708 2791 5810 5792 5925 1437 3433 3085 4389 5354 3661 1162 2879 4055 2610 2019 3955 2761 3730 3714 2374 2028 3581 2936 2468 2918 2824 2285 3274 1683 2685 2927 3230 2674 2055 2651 2368 1984 1338 594 1735 2209 2078 555 2080 1719 1790 1295 2300 1227 1926 2544 2151 2034 1467 1661 1949 2187 1900 1463 1544 484 1500 2669 1804 1565 1397 1374 1126 1130 1444 1463 986 800 1387 1680 1452 1251 1233 960 986 1276 1244 1381 511 1297 1296 1036
is_linear=0
shrinkage=0.05


Tree=6
num_leaves=127
num_cat=0
split_feature=15 13 1 12 23 1 19 23 2 12 2 23 1 1 2 23 12 12 12 23 23 11 2 2 2 23 2 23 23 10 2 2 10 12 23 12 12 11 23 2 12 12 10 23 23 11 23 2 11 2 10 10 23 23 23 2 10 10 11 10 11 10 11 10 10 12 10 10 23 2 11 10 11 12 10 23 23 23 11 23 12 11 2 11 23 11 23 23 11 10 11 11 23 23 10 2 23 10 2 2 10 2 11 11 23 10 11 10 11 11 2 10 10 11 11 23 23 10 11 11 11 11 10 2 23 10
split_gain=1.56878e+10 2.29062e+09 2.1135e+09 1.26558e+09 9.98667e+08 9.6989e+08 7.75841e+08 5.83537e+08 4.7849e+08 4.68831e+08 3.65712e+08 3.5339e+08 3.41196e+08 3.2496e+08 2.7943e+08 2.38751e+08 2.08939e+08 2.06761e+08 2.0465e+08 2.04419e+08 1.81064e+08 1.7885e+08 1.65065e+08 1.64725e+08 1.61986e+08 1.55668e+08 1.52668e+08 1.44277e+08 1.32066e+08 1.15623e+08 1.14715e+08 1.02909e+08 1.01478e+08 9.5643e+07 9.16898e+07 8.46309e+07 8.2894e+07 8.2745e+07 8.15528e+07 7.83435e+07 7.76213e+07 7.67866e+07 7.4341e+07 7.40303e+07 7.32726e+07 7.01672e+07 6.80208e+07 6.7874e+07 6.46434e+07 6.41816e+07 6.31655e+07 6.1127e+07 6.10788e+07 6.00343e+07 6.33889e+07 5.81855e+07 5.5669e+07 4.73442e+07 4.58282e+07 4.52258e+07 4.46067e+07 4.42638e+07 4.36031e+07 4.26692e+07 4.23062e+07 4.17796e+07 4.13678e+07 4.06526e+07 4.0128e+07 3.89497e+07 3.89278e+07 3.85903e+07 3.84357e+07 3.67053e+07 3.64125e+07 3.47928e+07 3.45865e+07 3.35192e+07 3.33803e+07 3.15169e+07 3.14829e+07 3.14688e+07 3.14497e+07 3.13049e+07 3.09224e+07 3.07192e+07 2.97884e+07 2.91812e+07 2.8274e+07 2.7858e+07 2.76785e+07 2.74808e+07 2.73576e+07 3.54314e+07 2.73551e+07 2.73293e+07 2.64008e+07 2.62407e+07 2.58904e+07 2.48469e+07 2.47843e+07 2.45656e+07 2.41903e+07 2.40332e+07 2.39055e+07 2.37935e+07 2.36192e+07 2.33818e+07 2.30962e+07 2.26026e+07 2.23909e+07 2.23351e+07 2.20753e+07 2.17119e+07 2.16994e+07 2.14825e+07 2.56065e+07 2.14154e+07 2.12745e+07 2.0967e+07 2.0878e+07 2.06478e+07 2.02913e+07 2.02158e+07 1.99696e+07 1.98215e+07
threshold=1.0000000180025095e-35 1.0000000180025095e-35 4.5000000000000009 1.0000000180025095e-35 -0.0019345268463133471 4.5000000000000009 1.0000000180025095e-35 -0.0019345268463133471 4.5000000000000009 1.0000000180025095e-35 4.5000000000000009 -0.0019345268463133471 4.5000000000000009 4.5000000000000009 7.5000000000000009 -0.0019345268463133471 1.0000000180025095e-35 1.0000000180025095e-35 1.0000000180025095e-35 -0.0019345268463133471 -0.0019345268463133471 0.51849683508926891 4.5000000000000009 4.5000000000000009 7.5000000000000009 1.1141386537192026 18.500000000000004 -0.0019345268463133471 2.229566992002614 1.5000000000000002 7.5000000000000009 18.500000000000004 1.5000000000000002 1.0000000180025095e-35 1.1141386537192026 1.0000000180025095e-35 1.0000000180025095e-35 1.0000000180025095e-35 -0.0019345268463133471 4.5000000000000009 1.0000000180025095e-35 1.0000000180025095e-35 1.5000000000000002 -0.0019345268463133471 2.229566992002614 -0.34967987400574374 -0.0019345268463133471 4.5000000000000009 -0.52331521582474616 7.5000000000000009 1.5000000000000002 1.5000000000000002 2.6009465432423484 -1.4900321009336674 -0.0045138959747311426 18.500000000000004 1.5000000000000002 1.5000000000000002 -0.17604453218674124 1.5000000000000002 -0.17604453218674124 1.5000000000000002 1.0000000180025095e-35 1.5000000000000002 1.5000000000000002 1.0000000180025095e-35 3.5000000000000004 1.5000000000000002 2.6009465432423484 4.5000000000000009 0.34486149327026633 1.5000000000000002 0.34486149327026633 1.0000000180025095e-35 1.5000000000000002 1.1141386537192026 1.1141386537192026 -0.0019345268463133471 1.0000000180025095e-35 -1.4900321009336674 1.0000000180025095e-35 0.51849683508926891 4.5000000000000009 -0.52331521582474616 2.229566992002614 0.51849683508926891 -0.0045138959747311426 -2.9800642018673349 0.51849683508926891 1.5000000000000002 0.17122615145126377 0.34486149327026633 -1.4900321009336674 -0.0045138959747311426 3.5000000000000004 7.5000000000000009 2.229566992002614 1.5000000000000002 16.500000000000004 16.500000000000004 3.5000000000000004 16.500000000000004 0.34486149327026633 -0.34967987400574374 -1.4900321009336674 1.5000000000000002 -0.34967987400574374 1.5000000000000002 -0.52331521582474616 0.17122615145126377 18.500000000000004 3.5000000000000004 1.5000000000000002 0.17122615145126377 -0.34967987400574374 -1.4900321009336674 -0.0045138959747311426 1.5000000000000002 -0.52331521582474616 0.17122615145126377 -0.17604453218674124 -0.34967987400574374 1.5000000000000002 18.500000000000004 1.1141386537192026 1.5000000000000002
decision_type=2 2 2 2 2 2 2 2 2 2 2 2 2 2 2 2 2 2 2 2 2 2 2 2 2 2 2 2 2 2 2 2 2 2 2 2 2 2 2 2 2 2 2 2 2 2 2 2 2 2 2 2 2 2 2 2 2 2 2 2 2 2 2 2 2 2 2 2 2 2 2 2 2 2 2 2 2 2 2 2 2 2 2 2 2 2 2 2 2 2 2 2 2 2 2 2 2 2 2 2 2 2 2 2 2 2 2 2 2 2 2 2 2 2 2 2 2 2 2 2 2 2 2 2 2 2
left_child=2 6 3 4 8 7 13 14 32 11 34 23 19 16 65 30 27 24 26 33 39 29 81 106 114 51 37 59 94 53 -7 42 48 67 71 55 62 63 69 109 46 49 60 80 -36 107 121 -22 -1 -17 76 72 -30 87 -55 64 79 104 110 85 -26 88 125 99 98 105 115 103 -46 -11 117 118 -12 -45 101 -29 -24 -18 -34 -23 113 -13 -40 -49 -78 -2 -81 -10 -54 -28 -20 -70 -50 -94 108 -19 -77 -60 -32 -16 119 -39 -44 -8 -47 -3 -4 -25 -27 -5 -51 -58 -33 -14 -9 -31 -117 -41 -6 -53 -52 -15 -64 -97 -62 -21
right_child=1 5 9 20 10 15 12 17 21 38 25 22 43 40 18 41 77 95 90 36 47 56 50 45 31 28 89 75 52 66 35 112 78 -35 44 -37 -38 74 82 70 -42 -43 102 73 68 57 -48 83 92 58 120 100 61 54 -56 -57 111 -59 97 -61 124 -63 122 -65 -66 -67 -68 -69 91 -71 -72 -73 -74 -75 -76 96 84 -79 -80 86 -82 -83 -84 -85 -86 -87 -88 -89 -90 -91 -92 -93 93 -95 -96 123 -98 -99 -100 -101 -102 -103 -104 -105 -106 -107 -108 -109 -110 -111 -112 -113 -114 -115 -116 116 -118 -119 -120 -121 -122 -123 -124 -125 -126 -127
leaf_value=-36.589417469194743 14.982673397603122 14.883992767574263 -58.933332901000973 -13.963407332012963 -11.657877771822124 -9.3245603899726088 -9.7931868637229513 20.023138978981294 -17.293510040286268 -31.399810030463268 7.6275345470565199 -42.133456395259493 -35.554600583690714 -16.043577394246782 28.70942976902262 6.9562619625518822 40.377543343337564 52.479614037968105 47.886539572296336 9.4995280256490489 9.3631078948653172 -9.1395582185149546 -8.8265679293821027 -41.142649630269695 51.854152225005159 -24.319961803724738 22.908809491126604 39.576046197058126 18.654174974160863 -31.363696252084761 12.461265331247951 41.822093107974652 -47.111919734464145 16.015624822398518 -33.79776253075206 32.618724284843658 37.026325244802649 40.721875359178114 -13.457220041998188 7.4485123726098337 25.689434685880059 47.628943839219907 39.862357633936824 -11.795066727100858 2.8454247809564772 -33.997313376410439 11.09338371079631 16.715224133496069 -29.039200338239375 24.484726594748548 -36.491236069951249 -2.6973201351443836 -1.9175794490659994 -5.2682163791641736 -21.20013606287413 -3.8781677382109807 -13.282359147237054 -41.465823445478492 41.523045704947279 5.8404094427935984 71.29876663744534 -10.23844487571963 23.408493298764778 21.56823926028239 4.538645638241726 31.825451079740489 -43.560216696154249 -15.610586142074888 -24.104619529705069 -13.961902499151893 16.521344439576094 -16.9366004707502 19.7203066447826 14.584358684802133 34.536302566329844 14.234579225528202 -33.042609100341799 60.143143068483369 -35.103650018934147 6.8505632888751826 -6.6634306396137593 -29.182477705319997 4.259477447211899 31.205215329648389 -15.783801943513533 28.830348144378952 -8.6686154545386547 -28.017519944923471 10.450551426952112 8.1002198716294345 63.547144531306834 -11.092296134009848 -13.415099059411299 -29.321902249562488 -43.199916465357731 77.837299451045041 31.327539195479968 25.318117277413084 25.742368229122942 40.621290063290758 -14.473230517750967 52.609998646641635 53.063482992953112 1.9994090386617029 -23.057511640839891 1.4163916727716399 -49.161462612612809 -52.795321425365231 -10.903235136621285 -0.35147365311231582 5.0502580473568086 -30.280767271476879 26.382673374044597 -21.545938611132886 34.9129544618106 -15.82011881933982 -30.739001436024907 -5.8964521729215758 0.48422514143636547 9.8057916720695051 -23.377399037172058 -2.057309256946434 9.0762170035185967 58.717452506426085 59.187667721907303 -4.7368112168886283
leaf_weight=1569 1230 897 1063 646 553 653 728 421 1517 512 1618 1398 589 436 893 403 521 190 651 679 941 1432 1104 1332 1192 485 924 949 405 1146 766 690 1204 526 858 496 377 911 391 878 366 454 900 826 241 996 870 575 1388 710 553 753 1344 1690 990 580 1305 1083 703 904 710 1063 733 964 793 258 418 948 1025 861 861 853 1108 156 984 318 373 381 1157 892 186 724 693 1082 863 597 472 1101 703 486 536 676 955 555 94 742 802 398 710 890 242 887 595 1060 1027 517 1655 668 954 577 188 227 360 535 603 730 479 456 1034 603 695 667 375 192 767 381
leaf_count=1569 1230 897 1063 646 553 653 728 421 1517 512 1618 1398 589 436 893 403 521 190 651 679 941 1432 1104 1332 1192 485 924 949 405 1146 766 690 1204 526 858 496 377 911 391 878 366 454 900 826 241 996 870 575 1388 710 553 753 1344 1690 990 580 1305 1083 703 904 710 1063 733 964 793 258 418 948 1025 861 861 853 1108 156 984 318 373 381 1157 892 186 724 693 1082 863 597 472 1101 703 486 536 676 955 555 94 742 802 398 710 890 242 887 595 1060 1027 517 1655 668 954 577 188 227 360 535 603 730 479 456 1034 603 695 667 375 192 767 381
internal_value=0.00147639 23.8379 -17.1373 -10.9756 -14.7323 33.6281 9.27034 39.9787 -22.2201 -32.4929 -4.87875 -36.1407 -1.65285 20.2712 31.98 17.7247 26.708 50.6184 35.8102 4.79487 10.1545 -16.3645 -26.6744 -43.045 47.045 1.03623 32.5192 22.5503 -4.92734 -20.7619 9.83354 50.6187 -32.8494 -3.49129 -15.4561 13.5752 15.4127 36.2654 -12.3932 2.59037 4.5748 28.764 54.1545 -17.9837 -21.6296 -37.7346 0.64691 20.1013 -28.4039 25.18 -20.1269 7.99785 0.414655 -16.4266 -11.1592 10.2495 -8.16135 -33.0053 28.8487 14.9963 59.1804 -1.96582 11.6389 30.0848 13.8609 13.3546 -29.0357 -7.246 -16.2389 -20.4827 8.23951 -8.36589 12.5481 -7.59387 42.3551 32.5092 -15.2706 48.7838 -41.2447 -3.96128 -25.7604 -37.7306 -2.13746 26.1901 -21.0147 19.5209 1.47787 -21.8125 2.33303 17.8139 55.0058 -18.9429 -23.9611 -19.2772 -17.1682 70.3904 26.4914 35.6934 18.863 34.6748 0.232591 46.6126 45.1483 -2.80484 -28.4577 9.96433 -53.0035 -45.0591 -15.439 -7.54696 20.4262 -15.8192 36.5587 -28.9119 28.8168 -26.4403 -21.7514 2.88581 -3.75144 2.86582 -29.2128 -7.59541 18.5703 73.9739 65.0538 4.38286
internal_weight=96000 40154 55846 39855 33839 24014 16140 17160 19227 15991 14612 13534 8099 8041 9798 6854 5702 7362 8126 5807 6016 12399 5710 7824 6238 9372 6939 4800 5048 8071 3998 5214 6828 3262 5240 3345 2545 5529 2457 3418 2339 2856 4164 2292 2800 5106 1973 2598 4467 2402 3588 4324 3515 5298 2680 2849 4328 3106 1999 2731 2669 3110 2168 2747 2269 1672 2773 2736 1942 1373 2195 2440 2726 982 2782 2069 2340 902 2361 2796 1310 2122 1084 1657 1236 1827 1364 2618 2047 1410 1187 1701 2898 1510 1533 1124 1120 1101 1476 1783 1598 1798 1495 1788 2023 1414 2718 2000 1439 1223 898 1532 1050 1124 1024 2355 1209 1334 1587 1356 1248 1103 1108 934 1477 1060
internal_count=96000 40154 55846 39855 33839 24014 16140 17160 19227 15991 14612 13534 8099 8041 9798 6854 5702 7362 8126 5807 6016 12399 5710 7824 6238 9372 6939 4800 5048 8071 3998 5214 6828 3262 5240 3345 2545 5529 2457 3418 2339 2856 4164 2292 2800 5106 1973 2598 4467 2402 3588 4324 3515 5298 2680 2849 4328 3106 1999 2731 2669 3110 2168 2747 2269 1672 2773 2736 1942 1373 2195 2440 2726 982 2782 2069 2340 902 2361 2796 1310 2122 1084 1657 1236 1827 1364 2618 2047 1410 1187 1701 2898 1510 1533 1124 1120 1101 1476 1783 1598 1798 1495 1788 2023 1414 2718 2000 1439 1223 898 1532 1050 1124 1024 2355 1209 1334 1587 1356 1248 1103 1108 934 1477 1060
is_linear=0
shrinkage=0.05


Tree=7
num_leaves=127
num_cat=0
split_feature=15 13 1 23 1 19 23 2 23 2 1 1 2 23 11 23 2 2 2 2 23 23 23 10 2 2 11 10 11 10 10 11 11 10 23 2 10 2 23 23 23 23 23 11 10 2 11 11 11 10 23 23 10 23 10 11 10 10 2 11 10 10 10 10 10 10 11 23 23 11 11 10 23 10 10 10 11 11 10 23 23 11 2 11 10 11 11 11 10 23 11 11 23 23 23 23 10 2 23 23 23 10 11 2 10 23 23 23 23 23 10 10 10 23 23 10 10 11 23 10 11 11 23 23 23 10
split_gain=1.41603e+10 2.06759e+09 1.90763e+09 1.06499e+09 8.75438e+08 7.003e+08 5.26755e+08 5.00284e+08 4.03479e+08 3.89115e+08 3.07984e+08 2.93323e+08 2.52204e+08 2.15518e+08 2.00977e+08 1.8452e+08 1.80623e+08 1.76176e+08 1.70226e+08 1.68788e+08 1.67255e+08 1.58856e+08 1.4061e+08 1.17863e+08 1.11376e+08 1.03547e+08 9.72166e+07 9.71027e+07 9.51908e+07 9.25787e+07 8.75481e+07 8.33295e+07 7.62469e+07 7.10072e+07 7.01142e+07 6.98636e+07 6.91814e+07 6.83909e+07 6.82323e+07 6.68323e+07 6.18618e+07 5.7143e+07 5.64429e+07 5.24396e+07 5.20497e+07 5.06153e+07 4.97921e+07 4.92222e+07 4.90443e+07 4.71784e+07 4.70071e+07 4.79328e+07 4.52547e+07 4.5063e+07 4.47567e+07 4.3426e+07 4.17039e+07 4.14549e+07 4.13463e+07 4.07992e+07 4.04541e+07 4.00107e+07 3.98651e+07 3.6494e+07 3.63512e+07 3.46995e+07 3.383e+07 3.36205e+07 3.21961e+07 3.17305e+07 3.10464e+07 3.04778e+07 3.01554e+07 2.99302e+07 2.92728e+07 2.88073e+07 2.84779e+07 2.83342e+07 2.79345e+07 2.78703e+07 2.95423e+07 2.78254e+07 2.77741e+07 2.75084e+07 2.73636e+07 2.68414e+07 2.62499e+07 2.60306e+07 2.55208e+07 2.51647e+07 2.4621e+07 2.46081e+07 2.43841e+07 2.43405e+07 3.41738e+07 2.4075e+07 2.36121e+07 2.34196e+07 2.31365e+07 2.3131e+07 2.55875e+07 2.27077e+07 2.26513e+07 2.14959e+07 2.14943e+07 2.13036e+07 2.38497e+07 2.12792e+07 2.05286e+07 2.34532e+07 2.03169e+07 2.03087e+07 2.02284e+07 2.01154e+07 2.0059e+07 1.99253e+07 1.93442e+07 1.86209e+07 1.80053e+07 1.79205e+07 1.78891e+07 1.78302e+07 1.76976e+07 1.74215e+07 2.16334e+07 1.73774e+07
threshold=1.0000000180025095e-35 1.0000000180025095e-35 4.5000000000000009 -0.0019345268463133471 4.5000000000000009 1.0000000180025095e-35 -0.0019345268463133471 4.5000000000000009 -0.0019345268463133471 4.5000000000000009 4.5000000000000009 4.5000000000000009 7.5000000000000009 -0.0019345268463133471 -0.17604453218674124 -0.0019345268463133471 4.5000000000000009 4.5000000000000009 7.5000000000000009 18.500000000000004 1.1141386537192026 -0.0019345268463133471 2.229566992002614 1.5000000000000002 18.500000000000004 7.5000000000000009 0.34486149327026633 1.5000000000000002 0.17122615145126377 1.5000000000000002 1.5000000000000002 0.17122615145126377 0.17122615145126377 1.5000000000000002 2.6009465432423484 7.5000000000000009 1.5000000000000002 18.500000000000004 -0.0019345268463133471 -0.0019345268463133471 1.1141386537192026 -1.4900321009336674 -0.0045138959747311426 -0.52331521582474616 1.5000000000000002 18.500000000000004 1.0000000180025095e-35 -0.34967987400574374 -0.17604453218674124 1.5000000000000002 -1.4900321009336674 -0.0045138959747311426 1.5000000000000002 2.229566992002614 1.5000000000000002 -0.52331521582474616 3.5000000000000004 1.5000000000000002 16.500000000000004 0.17122615145126377 1.5000000000000002 3.5000000000000004 1.5000000000000002 1.5000000000000002 1.5000000000000002 1.5000000000000002 -0.52331521582474616 -1.4900321009336674 -0.0045138959747311426 0.69213217690827145 1.0000000180025095e-35 1.5000000000000002 -2.9800642018673349 3.5000000000000004 3.5000000000000004 1.5000000000000002 -0.87058589946275122 0.17122615145126377 1.5000000000000002 -1.4900321009336674 -0.0045138959747311426 1.0000000180025095e-35 16.500000000000004 0.17122615145126377 1.5000000000000002 -0.17604453218674124 0.51849683508926891 -0.17604453218674124 1.5000000000000002 -2.9800642018673349 0.17122615145126377 -0.6969505576437488 1.1141386537192026 -1.4900321009336674 -0.0045138959747311426 2.6009465432423484 1.5000000000000002 16.500000000000004 2.229566992002614 -1.4900321009336674 -0.0045138959747311426 1.5000000000000002 0.34486149327026633 16.500000000000004 3.5000000000000004 -1.4900321009336674 -0.0045138959747311426 1.1141386537192026 1.1141386537192026 2.229566992002614 3.5000000000000004 1.5000000000000002 1.5000000000000002 2.229566992002614 1.1141386537192026 1.5000000000000002 3.5000000000000004 1.0000000180025095e-35 -2.9800642018673349 1.5000000000000002 0.51849683508926891 -0.17604453218674124 2.229566992002614 -1.4900321009336674 -0.0045138959747311426 1.5000000000000002
decision_type=2 2 2 2 2 2 2 2 2 2 2 2 2 2 2 2 2 2 2 2 2 2 2 2 2 2 2 2 2 2 2 2 2 2 2 2 2 2 2 2 2 2 2 2 2 2 2 2 2 2 2 2 2 2 2 2 2 2 2 2 2 2 2 2 2 2 2 2 2 2 2 2 2 2 2 2 2 2 2 2 2 2 2 2 2 2 2 2 2 2 2 2 2 2 2 2 2 2 2 2 2 2 2 2 2 2 2 2 2 2 2 2 2 2 2 2 2 2 2 2 2 2 2 2 2 2
left_child=2 5 3 7 6 11 12 23 17 26 15 21 88 25 29 52 60 69 83 28 33 47 63 32 30 -6 40 41 44 50 48 65 67 55 -24 -15 59 49 76 85 84 72 -43 111 79 64 101 115 103 81 89 -52 86 -42 70 -11 99 108 119 107 92 66 -33 121 97 105 -25 -1 -69 125 -23 -49 -16 91 123 -45 -13 -32 117 118 -81 -27 -50 -8 -5 -12 -7 -38 120 -9 -26 -35 -10 -34 -95 -55 -60 -37 -94 -29 -101 -17 -40 -20 -54 -19 -107 -18 -28 -110 -46 -36 -41 -109 -48 -2 -51 -21 -14 -30 -3 -22 -116 -31 -125 -4
right_child=1 4 8 9 13 10 18 14 16 20 39 38 19 35 27 46 36 31 24 78 22 54 34 61 90 37 57 56 58 74 77 62 93 73 43 45 87 -39 102 112 53 42 -44 75 110 -47 114 71 82 116 51 -53 104 95 -56 -57 -58 -59 96 -61 -62 -63 -64 -65 -66 -67 -68 68 -70 -71 -72 -73 -74 -75 -76 -77 -78 -79 -80 80 -82 -83 -84 -85 -86 -87 -88 -89 -90 -91 -92 -93 98 94 -96 -97 -98 -99 -100 100 -102 -103 -104 -105 -106 106 -108 113 109 -111 -112 -113 -114 -115 122 -117 -118 -119 -120 -121 -122 -123 -124 124 -126 -127
leaf_value=-34.43175350960928 14.847735616044691 12.708320487336634 -47.212967311329521 -4.6806579929638161 -8.8590451608210881 -3.031299879916777 24.255318873883514 -14.941564335252508 -20.894530050131767 7.9253204456574737 -32.767555734766994 -16.000292662189882 36.124770032070877 9.9685409526834814 -3.262723761541956 12.405172972898637 -9.9907275064359364 -39.38853037279452 46.438241130461442 17.418853630827545 -14.441536107418433 32.801313509708102 21.880006533197243 -41.560325842274814 31.562787524677859 15.057100903234101 7.2235908498425303 -16.584002422013114 42.184617337297695 -29.020324221173258 39.775717325261247 -21.713947958914805 -21.78810150376794 -3.1093778133759642 -2.0177508939493656 32.385578885537846 -31.650012441198157 -1.3998606981844155 8.2111909511271186 -1.8182177827373409 -33.494254707539739 8.176256518147488 -7.2708093322761629 10.0402634234038 26.494497932422384 15.914338486781606 27.693717147994448 27.741359063365366 59.115554546180661 10.32268466182194 -3.5184316319519242 -18.81606795116387 -8.5174226937614019 1.2997079525859494 25.660522756493194 20.040655581794766 -28.737590106591973 -12.433759770619773 54.969018649375165 -4.0793628128229882 -40.767707947713063 -51.083329564947832 -34.403554531149176 -22.494197304791541 25.087460608980166 -45.283650156138606 -29.040666942143304 -18.281651244013769 -33.45563717029934 -39.477883814396733 46.865331825685445 14.446089551955778 -14.211127964961427 -11.672817860976828 -39.994232427547871 -1.6505724696264139 1.0471935975860009 52.793633353147953 10.63563288375814 48.177069156657126 31.364379922499854 27.705449858109361 72.118453951261628 39.52638278406971 -18.003624078577769 -18.247534601929665 8.6632983113833468 -18.254983777677847 4.5169632759367842 -25.956574192993742 45.866606919969833 10.283667288726777 -45.989089771046359 -5.5225735439657422 -22.88976294515345 -19.57020839584251 41.561014391991982 46.34351028702271 -27.843745899271848 -0.90217138839578959 -15.994618119292207 -1.8154950104715639 23.613829525336627 59.001378784179693 -28.053071596087833 -23.82458993555629 -39.568980296760486 -33.985650557259724 -16.975954943733214 1.0546391135812909 8.4493389675649446 -15.290859532004459 -16.754164902680355 -16.625689783530955 3.2507508919193846 1.6467663968619413 -10.098873310147731 30.72752004066249 23.134944843135038 30.281928657110484 26.462889625986307 -2.1245437197695982 20.780040597717829 -13.566042994193793 -28.891373544538272 -56.814874769786869
leaf_weight=1346 905 705 1508 1118 653 1392 685 1282 757 1153 560 323 678 483 1502 796 725 1046 705 508 526 792 482 847 683 887 753 1173 982 951 940 1782 1153 498 855 601 645 669 625 628 617 1658 918 1545 1069 460 646 1271 890 792 1415 802 975 156 850 2072 418 852 953 1265 902 379 957 625 680 1103 1538 1010 539 978 808 658 1082 277 348 799 1004 792 567 733 420 862 853 529 588 750 731 843 609 878 559 1098 254 801 438 1201 533 632 600 734 454 433 387 726 164 708 371 239 249 647 184 434 354 564 210 418 135 557 454 488 358 665 460 604 375 744
leaf_count=1346 905 705 1508 1118 653 1392 685 1282 757 1153 560 323 678 483 1502 796 725 1046 705 508 526 792 482 847 683 887 753 1173 982 951 940 1782 1153 498 855 601 645 669 625 628 617 1658 918 1545 1069 460 646 1271 890 792 1415 802 975 156 850 2072 418 852 953 1265 902 379 957 625 680 1103 1538 1010 539 978 808 658 1082 277 348 799 1004 792 567 733 420 862 853 529 588 750 731 843 609 878 559 1098 254 801 438 1201 533 632 600 734 454 433 387 726 164 708 371 239 249 647 184 434 354 564 210 418 135 557 454 488 358 665 460 604 375 744
internal_value=0.00161757 22.6478 -16.2814 -10.4274 31.9492 8.80763 37.9827 -17.5525 -30.87 -1.05173 -1.57017 19.2592 30.3831 16.8401 -12.0313 4.5557 -21.6238 -37.6972 48.0914 34.0219 4.57655 25.3747 -1.13215 -27.5581 51.4733 9.34264 -11.0936 -6.65785 37.6356 -18.4395 54.8675 -32.5936 -23.175 11.2169 3.98229 27.3285 -15.3715 12.8975 4.34646 -17.0859 -16.262 -2.59872 2.67075 1.60238 32.0807 30.8562 14.6435 18.1214 59.8238 16.471 -14.1794 -9.05834 -3.31684 -22.288 34.9909 15.713 -14.1911 -3.48521 44.271 -10.7258 -32.2644 -35.9307 -26.1586 -12.7171 34.4389 -38.0441 -33.5024 -28.6355 -23.5799 -47.1124 39.9285 23.2161 -7.85088 3.47125 -26.6152 6.0562 -3.11119 45.7555 19.6284 36.5798 42.0852 21.3032 65.5167 30.9367 -9.28049 -24.4748 0.997612 -24.0787 12.6883 -19.4289 38.0324 6.1053 -27.481 -16.5571 -11.6756 -17.1718 50.191 39.5718 -33.2881 -11.6047 -6.67843 7.39756 14.1188 52.8487 -11.3524 -34.2667 -29.2697 -16.2219 1.14303 -3.96943 23.8535 -6.49513 -7.21403 -21.8285 21.3997 10.6813 7.34099 24.4016 30.9401 38.2565 17.3611 -7.57185 15.2988 -24.1833 -19.4598 -50.409
internal_weight=96000 40154 55846 39855 24014 16140 17160 22645 15991 17210 8099 8041 9798 6854 14594 5807 6794 9197 7362 8126 11029 5702 5931 8051 6148 3998 6181 7939 6494 6655 4906 5967 5287 5098 4115 2856 4281 3345 2339 2292 3680 5160 2576 3633 3538 2373 2545 3252 3174 2676 4377 2217 3262 1974 2450 3225 2779 2501 2956 2793 2513 2764 2739 1816 1913 3228 2385 2895 1549 3230 1600 1929 2584 1873 2278 2344 1327 1732 1632 2285 1153 1749 1743 1214 1706 1310 2123 1488 1672 2160 1242 1596 1611 2392 1239 1357 1486 1233 854 2361 1188 1229 1012 1431 1139 2125 1079 1528 1649 896 1253 1289 982 803 1316 1323 927 1065 1132 1470 1063 1191 670 1930 979 2252
internal_count=96000 40154 55846 39855 24014 16140 17160 22645 15991 17210 8099 8041 9798 6854 14594 5807 6794 9197 7362 8126 11029 5702 5931 8051 6148 3998 6181 7939 6494 6655 4906 5967 5287 5098 4115 2856 4281 3345 2339 2292 3680 5160 2576 3633 3538 2373 2545 3252 3174 2676 4377 2217 3262 1974 2450 3225 2779 2501 2956 2793 2513 2764 2739 1816 1913 3228 2385 2895 1549 3230 1600 1929 2584 1873 2278 2344 1327 1732 1632 2285 1153 1749 1743 1214 1706 1310 2123 1488 1672 2160 1242 1596 1611 2392 1239 1357 1486 1233 854 2361 1188 1229 1012 1431 1139 2125 1079 1528 1649 896 1253 1289 982 803 1316 1323 927 1065 1132 1470 1063 1191 670 1930 979 2252
is_linear=0
shrinkage=0.05


Tree=8
num_leaves=127
num_cat=0
split_feature=13 25 3 3 3 14 14 12 14 12 14 3 14 12 12 2 3 14 12 12 3 12 10 3 3 12 11 3 12 2 11 10 11 12 2 11 3 2 3 19 10 23 2 23 12 2 3 10 12 10 3 11 11 2 19 12 16 11 10 10 11 2 2 11 10 19 11 10 2 11 19 2 2 11 19 11 2 2 16 3 11 11 3 10 2 3 2 11 23 2 19 23 19 19 19 2 23 16 10 2 2 3 10 2 11 2 10 16 10 2 10 2 3 2 16 19 2 11 11 10 2 10 23 2 11 11
split_gain=1.1802e+10 2.62334e+09 1.35811e+09 9.82087e+08 9.24847e+08 9.17679e+08 6.47093e+08 5.64287e+08 5.58707e+08 4.51273e+08 3.75215e+08 3.13755e+08 3.13108e+08 2.76209e+08 2.6623e+08 2.31217e+08 2.24671e+08 2.19631e+08 2.1819e+08 2.15018e+08 1.59686e+08 1.54526e+08 1.51822e+08 1.3094e+08 1.28626e+08 1.27495e+08 1.13232e+08 1.10176e+08 1.05894e+08 9.589e+07 9.52599e+07 9.42045e+07 8.41973e+07 8.27763e+07 7.68276e+07 7.19574e+07 7.01149e+07 6.96982e+07 6.88222e+07 6.22525e+07 6.07853e+07 5.88744e+07 5.83724e+07 5.65013e+07 5.61209e+07 5.60397e+07 5.03675e+07 5.02396e+07 4.99623e+07 4.83975e+07 4.7753e+07 4.63739e+07 4.57259e+07 4.54551e+07 4.44313e+07 4.43803e+07 4.40919e+07 4.26918e+07 4.18301e+07 4.08915e+07 3.96672e+07 3.9551e+07 3.93709e+07 3.89903e+07 3.74637e+07 3.73247e+07 3.716e+07 3.65448e+07 3.58401e+07 3.53549e+07 3.51137e+07 4.35759e+07 3.55294e+07 3.45528e+07 3.45107e+07 3.35307e+07 3.32727e+07 3.27364e+07 3.25145e+07 3.23199e+07 3.19141e+07 3.1025e+07 3.0368e+07 2.96051e+07 2.93277e+07 2.8877e+07 2.87378e+07 2.79501e+07 2.79274e+07 2.77187e+07 2.72041e+07 2.68657e+07 2.67993e+07 2.65952e+07 2.63102e+07 2.6189e+07 2.56425e+07 2.51981e+07 2.48857e+07 2.36565e+07 2.34634e+07 2.32706e+07 2.32545e+07 2.31784e+07 2.29322e+07 2.24557e+07 2.21745e+07 2.20802e+07 2.19977e+07 2.18608e+07 2.17121e+07 2.16893e+07 2.1145e+07 2.06652e+07 2.06333e+07 2.04832e+07 2.34694e+07 2.01342e+07 1.98116e+07 1.96997e+07 1.91429e+07 1.91427e+07 1.90551e+07 1.8756e+07 1.85545e+07 1.83672e+07
